<?xml version="1.0" encoding="ISO-8859-1"?>
<smile version="1.0" id="Unnamed" numsamples="1000" discsamples="10000">
	<nodes>
		<cpt id="last_tweet_time">
			<state id="t2h" />
			<state id="t6h" />
			<state id="t12h" />
			<state id="t24hormore" />
			<probabilities>0.25 0.25 0.25 0.25</probabilities>
		</cpt>
		<cpt id="topic_BASKET">
			<state id="NO" />
			<state id="YES" />
			<probabilities>0.5 0.5</probabilities>
		</cpt>
		<cpt id="topic_SPORT">
			<state id="NO" />
			<state id="YES" />
			<probabilities>0.5 0.5</probabilities>
		</cpt>
		<cpt id="topic_FOOTBALL">
			<state id="NO" />
			<state id="YES" />
			<probabilities>0.5 0.5</probabilities>
		</cpt>
		<cpt id="interesting">
			<state id="NO" />
			<state id="YES" />
			<parents>topic_BASKET topic_SPORT topic_FOOTBALL</parents>
			<probabilities>0.9 0.1 0.4 0.6 0.8 0.2 0.4 0.6 0.8 0.2 0.2 0.8 0.9 0.1 0.3 0.7</probabilities>
		</cpt>
		<cpt id="info_type">
			<state id="event" />
			<state id="tweet" />
			<probabilities>0.5 0.5</probabilities>
		</cpt>
		<cpt id="replied">
			<state id="NO" />
			<state id="YES" />
			<parents>info_type</parents>
			<probabilities>1 0 0.7 0.3</probabilities>
		</cpt>
		<cpt id="mentioned">
			<state id="NO" />
			<state id="YES" />
			<parents>info_type</parents>
			<probabilities>0.5 0.5 0.5 0.5</probabilities>
		</cpt>
		<cpt id="following_author">
			<state id="NO" />
			<state id="YES" />
			<parents>info_type</parents>
			<probabilities>1 0 0.9 0.1</probabilities>
		</cpt>
		<cpt id="following_mentionedUsers">
			<state id="NO" />
			<state id="YES" />
			<state id="SOME" />
			<parents>info_type</parents>
			<probabilities>1 0 0 0.34 0.33 0.33</probabilities>
		</cpt>
		<cpt id="publish_tweet">
			<state id="NO" />
			<state id="YES" />
			<parents>last_tweet_time interesting replied mentioned following_author following_mentionedUsers info_type</parents>
			<probabilities>0.7413793103448276 0.2586206896551724 0.7413793103448276 0.2586206896551724 0.7413793103448276 0.2586206896551724 0.7413793103448276 0.2586206896551724 0.7413793103448276 0.2586206896551724 0.7413793103448276 0.2586206896551724 0.7413793103448276 0.2586206896551724 0.7413793103448276 0.2586206896551724 0.7413793103448276 0.2586206896551724 0.7413793103448276 0.2586206896551724 0.7413793103448276 0.2586206896551724 0.7413793103448276 0.2586206896551724 0.7413793103448276 0.2586206896551724 0.7413793103448276 0.2586206896551724 0.7413793103448276 0.2586206896551724 0.7413793103448276 0.2586206896551724 0.7413793103448276 0.2586206896551724 0.7413793103448276 0.2586206896551724 0.7413793103448276 0.2586206896551724 0.7413793103448276 0.2586206896551724 0.7413793103448276 0.2586206896551724 0.7413793103448276 0.2586206896551724 0.7413793103448276 0.2586206896551724 0.7413793103448276 0.2586206896551724 0.7413793103448276 0.2586206896551724 0.7413793103448276 0.2586206896551724 0.7413793103448276 0.2586206896551724 0.7413793103448276 0.2586206896551724 0.7413793103448276 0.2586206896551724 0.7413793103448276 0.2586206896551724 0.7413793103448276 0.2586206896551724 0.7413793103448276 0.2586206896551724 0.7413793103448276 0.2586206896551724 0.7413793103448276 0.2586206896551724 0.7413793103448276 0.2586206896551724 0.7413793103448276 0.2586206896551724 0.7413793103448276 0.2586206896551724 0.7413793103448276 0.2586206896551724 0.7413793103448276 0.2586206896551724 0.7413793103448276 0.2586206896551724 0.7413793103448276 0.2586206896551724 0.7413793103448276 0.2586206896551724 0.7413793103448276 0.2586206896551724 0.7413793103448276 0.2586206896551724 0.7413793103448276 0.2586206896551724 0.7413793103448276 0.2586206896551724 0.7413793103448276 0.2586206896551724 0.7413793103448276 0.2586206896551724 0.7413793103448276 0.2586206896551724 0.7413793103448276 0.2586206896551724 0.7413793103448276 0.2586206896551724 0.7413793103448276 0.2586206896551724 0.7413793103448276 0.2586206896551724 0.7413793103448276 0.2586206896551724 0.7413793103448276 0.2586206896551724 0.7413793103448276 0.2586206896551724 0.7413793103448276 0.2586206896551724 0.7413793103448276 0.2586206896551724 0.7413793103448276 0.2586206896551724 0.7413793103448276 0.2586206896551724 0.7413793103448276 0.2586206896551724 0.7413793103448276 0.2586206896551724 0.7413793103448276 0.2586206896551724 0.7413793103448276 0.2586206896551724 0.7413793103448276 0.2586206896551724 0.7413793103448276 0.2586206896551724 0.7413793103448276 0.2586206896551724 0.7413793103448276 0.2586206896551724 0.7413793103448276 0.2586206896551724 0.7413793103448276 0.2586206896551724 0.7413793103448276 0.2586206896551724 0.7413793103448276 0.2586206896551724 0.7413793103448276 0.2586206896551724 0.7413793103448276 0.2586206896551724 0.7413793103448276 0.2586206896551724 0.7413793103448276 0.2586206896551724 0.7413793103448276 0.2586206896551724 0.7413793103448276 0.2586206896551724 0.7413793103448276 0.2586206896551724 0.7413793103448276 0.2586206896551724 0.7413793103448276 0.2586206896551724 0.7413793103448276 0.2586206896551724 0.7413793103448276 0.2586206896551724 0.7413793103448276 0.2586206896551724 0.7413793103448276 0.2586206896551724 0.7413793103448276 0.2586206896551724 0.7413793103448276 0.2586206896551724 0.7413793103448276 0.2586206896551724 0.7413793103448276 0.2586206896551724 0.7413793103448276 0.2586206896551724 0.7413793103448276 0.2586206896551724 0.7413793103448276 0.2586206896551724 0.7413793103448276 0.2586206896551724 0.7413793103448276 0.2586206896551724 0.7413793103448276 0.2586206896551724 0.7413793103448276 0.2586206896551724 0.7413793103448276 0.2586206896551724 0.7413793103448276 0.2586206896551724 0.7413793103448276 0.2586206896551724 0.7413793103448276 0.2586206896551724 0.7413793103448276 0.2586206896551724 0.7413793103448276 0.2586206896551724 0.7413793103448276 0.2586206896551724 0.7413793103448276 0.2586206896551724 0.7413793103448276 0.2586206896551724 0.7413793103448276 0.2586206896551724 0.7413793103448276 0.2586206896551724 0.7413793103448276 0.2586206896551724 0.7413793103448276 0.2586206896551724 0.7413793103448276 0.2586206896551724 0.7413793103448276 0.2586206896551724 0.7413793103448276 0.2586206896551724 0.7413793103448276 0.2586206896551724 0.7413793103448276 0.2586206896551724 0.7413793103448276 0.2586206896551724 0.7413793103448276 0.2586206896551724 0.7413793103448276 0.2586206896551724 0.7413793103448276 0.2586206896551724 0.7413793103448276 0.2586206896551724 0.7413793103448276 0.2586206896551724 0.7413793103448276 0.2586206896551724 0.7413793103448276 0.2586206896551724 0.7413793103448276 0.2586206896551724 0.7413793103448276 0.2586206896551724 0.7413793103448276 0.2586206896551724 0.7413793103448276 0.2586206896551724 0.7413793103448276 0.2586206896551724 0.7413793103448276 0.2586206896551724 0.7413793103448276 0.2586206896551724 0.7413793103448276 0.2586206896551724 0.7413793103448276 0.2586206896551724 0.7413793103448276 0.2586206896551724 0.7413793103448276 0.2586206896551724 0.7413793103448276 0.2586206896551724 0.7413793103448276 0.2586206896551724 0.7413793103448276 0.2586206896551724 0.7413793103448276 0.2586206896551724 0.7413793103448276 0.2586206896551724 0.7413793103448276 0.2586206896551724 0.7413793103448276 0.2586206896551724 0.7413793103448276 0.2586206896551724 0.7413793103448276 0.2586206896551724 0.7413793103448276 0.2586206896551724 0.7413793103448276 0.2586206896551724 0.7413793103448276 0.2586206896551724 0.7413793103448276 0.2586206896551724 0.7413793103448276 0.2586206896551724 0.7413793103448276 0.2586206896551724 0.7413793103448276 0.2586206896551724 0.7413793103448276 0.2586206896551724 0.7413793103448276 0.2586206896551724 0.7413793103448276 0.2586206896551724 0.7413793103448276 0.2586206896551724 0.7413793103448276 0.2586206896551724 0.7413793103448276 0.2586206896551724 0.7413793103448276 0.2586206896551724 0.7413793103448276 0.2586206896551724 0.7413793103448276 0.2586206896551724 0.7413793103448276 0.2586206896551724 0.7413793103448276 0.2586206896551724 0.7413793103448276 0.2586206896551724 0.7413793103448276 0.2586206896551724 0.7413793103448276 0.2586206896551724 0.7413793103448276 0.2586206896551724 0.7413793103448276 0.2586206896551724 0.7413793103448276 0.2586206896551724 0.7413793103448276 0.2586206896551724 0.7413793103448276 0.2586206896551724 0.7413793103448276 0.2586206896551724 0.7413793103448276 0.2586206896551724 0.7413793103448276 0.2586206896551724 0.7413793103448276 0.2586206896551724 0.7413793103448276 0.2586206896551724 0.7413793103448276 0.2586206896551724 0.7413793103448276 0.2586206896551724 0.7413793103448276 0.2586206896551724 0.7413793103448276 0.2586206896551724 0.7413793103448276 0.2586206896551724 0.7413793103448276 0.2586206896551724 0.7413793103448276 0.2586206896551724 0.7413793103448276 0.2586206896551724 0.7413793103448276 0.2586206896551724 0.7413793103448276 0.2586206896551724 0.7413793103448276 0.2586206896551724 0.7413793103448276 0.2586206896551724 0.7413793103448276 0.2586206896551724 0.7413793103448276 0.2586206896551724 0.7413793103448276 0.2586206896551724 0.7413793103448276 0.2586206896551724 0.7413793103448276 0.2586206896551724 0.7413793103448276 0.2586206896551724 0.7413793103448276 0.2586206896551724 0.5 0.5 0.5 0.5 0.5 0.5 0.5 0.5 0.5 0.5 0.5 0.5 0.5 0.5 0.5 0.5 0.5 0.5 0.5 0.5 0.5 0.5 0.5 0.5 0.5 0.5 0.5 0.5 0.5 0.5 0.5 0.5 0.5 0.5 0.5 0.5 0.5 0.5 0.5 0.5 0.5 0.5 0.5 0.5 0.5 0.5 0.5 0.5 0.5 0.5 0.5 0.5 0.5 0.5 0.5 0.5 0.5 0.5 0.5 0.5 0.5 0.5 0.5 0.5 0.5 0.5 0.5 0.5 0.5 0.5 0.5 0.5 0.5 0.5 0.5 0.5 0.5 0.5 0.5 0.5 0.5 0.5 0.5 0.5 0.5 0.5 0.5 0.5 0.5 0.5 0.5 0.5 0.5 0.5 0.5 0.5 0.5 0.5 0.5 0.5 0.5 0.5 0.5 0.5 0.5 0.5 0.5 0.5 0.5 0.5 0.5 0.5 0.5 0.5 0.5 0.5 0.5 0.5 0.5 0.5 0.5 0.5 0.5 0.5 0.5 0.5 0.5 0.5 0.5 0.5 0.5 0.5 0.5 0.5 0.5 0.5 0.5 0.5 0.5 0.5 0.5 0.5 0.5 0.5 0.5 0.5 0.5 0.5 0.5 0.5 0.5 0.5 0.5 0.5 0.5 0.5 0.5 0.5 0.5 0.5 0.5 0.5 0.5 0.5 0.5 0.5 0.5 0.5 0.5 0.5 0.5 0.5 0.5 0.5 0.5 0.5 0.5 0.5 0.5 0.5 0.5 0.5 0.5 0.5 0.5 0.5 0.5 0.5 0.5 0.5 0.5 0.5 0.5 0.5 0.5 0.5 0.5 0.5 0.5 0.5 0.5 0.5 0.5 0.5 0.5 0.5 0.5 0.5 0.5 0.5 0.5 0.5 0.5 0.5 0.5 0.5 0.5 0.5 0.5 0.5 0.5 0.5 0.5 0.5 0.5 0.5 0.5 0.5 0.5 0.5 0.5 0.5 0.5 0.5 0.5 0.5 0.5 0.5 0.5 0.5 0.5 0.5 0.5 0.5 0.5 0.5 0.5 0.5 0.5 0.5 0.5 0.5 0.5 0.5 0.5 0.5 0.5 0.5 0.5 0.5 0.5 0.5 0.5 0.5 0.5 0.5 0.5 0.5 0.5 0.5 0.5 0.5 0.5 0.5 0.5 0.5 0.5 0.5 0.5 0.5 0.5 0.5 0.5 0.5 0.5 0.5 0.5 0.5 0.5 0.5 0.5 0.5 0.5 0.5 0.5 0.5 0.5 0.5 0.5 0.5 0.5 0.5 0.5 0.5 0.5 0.5 0.5 0.5 0.5 0.5 0.5 0.5 0.5 0.5 0.5 0.5 0.5 0.5 0.5 0.5 0.5 0.5 0.5 0.5 0.5 0.5 0.5 0.5 0.5 0.5 0.5 0.5 0.5 0.5 0.5 0.5 0.5 0.5 0.5 0.5 0.5 0.5 0.5 0.5 0.5 0.5 0.5 0.5 0.5 0.5 0.5 0.5 0.5 0.5 0.5 0.5 0.5 0.5 0.5 0.5 0.5 0.5 0.5 0.5 0.5 0.5 0.5 0.5 0.5 0.5 0.5 0.5 0.5 0.5 0.5 0.5 0.5 0.5 0.5 0.5 0.5 0.5 0.5 0.5</probabilities>
		</cpt>
		<cpt id="own_tweet">
			<state id="NO" />
			<state id="YES" />
			<probabilities>0.5 0.5</probabilities>
		</cpt>
		<cpt id="delete_tweet">
			<state id="NO" />
			<state id="YES" />
			<parents>interesting replied mentioned last_tweet_time following_author following_mentionedUsers info_type own_tweet</parents>
			<probabilities>0.9772727272727273 0.02272727272727273 0.9772727272727273 0.02272727272727273 0.9772727272727273 0.02272727272727273 0.9772727272727273 0.02272727272727273 0.9772727272727273 0.02272727272727273 0.9772727272727273 0.02272727272727273 0.9772727272727273 0.02272727272727273 0.9772727272727273 0.02272727272727273 0.9772727272727273 0.02272727272727273 0.9772727272727273 0.02272727272727273 0.9772727272727273 0.02272727272727273 0.9772727272727273 0.02272727272727273 0.9772727272727273 0.02272727272727273 0.9772727272727273 0.02272727272727273 0.9772727272727273 0.02272727272727273 0.9772727272727273 0.02272727272727273 0.9772727272727273 0.02272727272727273 0.9772727272727273 0.02272727272727273 0.9772727272727273 0.02272727272727273 0.9772727272727273 0.02272727272727273 0.9772727272727273 0.02272727272727273 0.9772727272727273 0.02272727272727273 0.9772727272727273 0.02272727272727273 0.9772727272727273 0.02272727272727273 0.9772727272727273 0.02272727272727273 0.9772727272727273 0.02272727272727273 0.9772727272727273 0.02272727272727273 0.9772727272727273 0.02272727272727273 0.9772727272727273 0.02272727272727273 0.9772727272727273 0.02272727272727273 0.9772727272727273 0.02272727272727273 0.9772727272727273 0.02272727272727273 0.9772727272727273 0.02272727272727273 0.9772727272727273 0.02272727272727273 0.9772727272727273 0.02272727272727273 0.9772727272727273 0.02272727272727273 0.9772727272727273 0.02272727272727273 0.9772727272727273 0.02272727272727273 0.9772727272727273 0.02272727272727273 0.9772727272727273 0.02272727272727273 0.9772727272727273 0.02272727272727273 0.9772727272727273 0.02272727272727273 0.9772727272727273 0.02272727272727273 0.9772727272727273 0.02272727272727273 0.9772727272727273 0.02272727272727273 0.9772727272727273 0.02272727272727273 0.9772727272727273 0.02272727272727273 0.9772727272727273 0.02272727272727273 0.5 0.5 0.5 0.5 0.5 0.5 0.5 0.5 0.5 0.5 0.5 0.5 0.5 0.5 0.5 0.5 0.5 0.5 0.5 0.5 0.5 0.5 0.5 0.5 0.5 0.5 0.5 0.5 0.5 0.5 0.5 0.5 0.5 0.5 0.5 0.5 0.5 0.5 0.5 0.5 0.5 0.5 0.5 0.5 0.5 0.5 0.5 0.5 0.5 0.5 0.5 0.5 0.5 0.5 0.5 0.5 0.5 0.5 0.5 0.5 0.5 0.5 0.5 0.5 0.5 0.5 0.5 0.5 0.5 0.5 0.5 0.5 0.5 0.5 0.5 0.5 0.5 0.5 0.5 0.5 0.5 0.5 0.5 0.5 0.5 0.5 0.5 0.5 0.5 0.5 0.5 0.5 0.5 0.5 0.5 0.5 0.9772727272727273 0.02272727272727273 0.9772727272727273 0.02272727272727273 0.9772727272727273 0.02272727272727273 0.9772727272727273 0.02272727272727273 0.9772727272727273 0.02272727272727273 0.9772727272727273 0.02272727272727273 0.9772727272727273 0.02272727272727273 0.9772727272727273 0.02272727272727273 0.9772727272727273 0.02272727272727273 0.9772727272727273 0.02272727272727273 0.9772727272727273 0.02272727272727273 0.9772727272727273 0.02272727272727273 0.9772727272727273 0.02272727272727273 0.9772727272727273 0.02272727272727273 0.9772727272727273 0.02272727272727273 0.9772727272727273 0.02272727272727273 0.9772727272727273 0.02272727272727273 0.9772727272727273 0.02272727272727273 0.9772727272727273 0.02272727272727273 0.9772727272727273 0.02272727272727273 0.9772727272727273 0.02272727272727273 0.9772727272727273 0.02272727272727273 0.9772727272727273 0.02272727272727273 0.9772727272727273 0.02272727272727273 0.9772727272727273 0.02272727272727273 0.9772727272727273 0.02272727272727273 0.9772727272727273 0.02272727272727273 0.9772727272727273 0.02272727272727273 0.9772727272727273 0.02272727272727273 0.9772727272727273 0.02272727272727273 0.9772727272727273 0.02272727272727273 0.9772727272727273 0.02272727272727273 0.9772727272727273 0.02272727272727273 0.9772727272727273 0.02272727272727273 0.9772727272727273 0.02272727272727273 0.9772727272727273 0.02272727272727273 0.9772727272727273 0.02272727272727273 0.9772727272727273 0.02272727272727273 0.9772727272727273 0.02272727272727273 0.9772727272727273 0.02272727272727273 0.9772727272727273 0.02272727272727273 0.9772727272727273 0.02272727272727273 0.9772727272727273 0.02272727272727273 0.9772727272727273 0.02272727272727273 0.9772727272727273 0.02272727272727273 0.9772727272727273 0.02272727272727273 0.9772727272727273 0.02272727272727273 0.9772727272727273 0.02272727272727273 0.5 0.5 0.5 0.5 0.5 0.5 0.5 0.5 0.5 0.5 0.5 0.5 0.5 0.5 0.5 0.5 0.5 0.5 0.5 0.5 0.5 0.5 0.5 0.5 0.5 0.5 0.5 0.5 0.5 0.5 0.5 0.5 0.5 0.5 0.5 0.5 0.5 0.5 0.5 0.5 0.5 0.5 0.5 0.5 0.5 0.5 0.5 0.5 0.5 0.5 0.5 0.5 0.5 0.5 0.5 0.5 0.5 0.5 0.5 0.5 0.5 0.5 0.5 0.5 0.5 0.5 0.5 0.5 0.5 0.5 0.5 0.5 0.5 0.5 0.5 0.5 0.5 0.5 0.5 0.5 0.5 0.5 0.5 0.5 0.5 0.5 0.5 0.5 0.5 0.5 0.5 0.5 0.5 0.5 0.5 0.5 0.9772727272727273 0.02272727272727273 0.9772727272727273 0.02272727272727273 0.9772727272727273 0.02272727272727273 0.9772727272727273 0.02272727272727273 0.9772727272727273 0.02272727272727273 0.9772727272727273 0.02272727272727273 0.9772727272727273 0.02272727272727273 0.9772727272727273 0.02272727272727273 0.9772727272727273 0.02272727272727273 0.9772727272727273 0.02272727272727273 0.9772727272727273 0.02272727272727273 0.9772727272727273 0.02272727272727273 0.9772727272727273 0.02272727272727273 0.9772727272727273 0.02272727272727273 0.9772727272727273 0.02272727272727273 0.9772727272727273 0.02272727272727273 0.9772727272727273 0.02272727272727273 0.9772727272727273 0.02272727272727273 0.9772727272727273 0.02272727272727273 0.9772727272727273 0.02272727272727273 0.9772727272727273 0.02272727272727273 0.9772727272727273 0.02272727272727273 0.9772727272727273 0.02272727272727273 0.9772727272727273 0.02272727272727273 0.9772727272727273 0.02272727272727273 0.9772727272727273 0.02272727272727273 0.9772727272727273 0.02272727272727273 0.9772727272727273 0.02272727272727273 0.9772727272727273 0.02272727272727273 0.9772727272727273 0.02272727272727273 0.9772727272727273 0.02272727272727273 0.9772727272727273 0.02272727272727273 0.9772727272727273 0.02272727272727273 0.9772727272727273 0.02272727272727273 0.9772727272727273 0.02272727272727273 0.9772727272727273 0.02272727272727273 0.9772727272727273 0.02272727272727273 0.9772727272727273 0.02272727272727273 0.9772727272727273 0.02272727272727273 0.9772727272727273 0.02272727272727273 0.9772727272727273 0.02272727272727273 0.9772727272727273 0.02272727272727273 0.9772727272727273 0.02272727272727273 0.9772727272727273 0.02272727272727273 0.9772727272727273 0.02272727272727273 0.9772727272727273 0.02272727272727273 0.9772727272727273 0.02272727272727273 0.9772727272727273 0.02272727272727273 0.5 0.5 0.5 0.5 0.5 0.5 0.5 0.5 0.5 0.5 0.5 0.5 0.5 0.5 0.5 0.5 0.5 0.5 0.5 0.5 0.5 0.5 0.5 0.5 0.5 0.5 0.5 0.5 0.5 0.5 0.5 0.5 0.5 0.5 0.5 0.5 0.5 0.5 0.5 0.5 0.5 0.5 0.5 0.5 0.5 0.5 0.5 0.5 0.5 0.5 0.5 0.5 0.5 0.5 0.5 0.5 0.5 0.5 0.5 0.5 0.5 0.5 0.5 0.5 0.5 0.5 0.5 0.5 0.5 0.5 0.5 0.5 0.5 0.5 0.5 0.5 0.5 0.5 0.5 0.5 0.5 0.5 0.5 0.5 0.5 0.5 0.5 0.5 0.5 0.5 0.5 0.5 0.5 0.5 0.5 0.5 0.9772727272727273 0.02272727272727273 0.9772727272727273 0.02272727272727273 0.9772727272727273 0.02272727272727273 0.9772727272727273 0.02272727272727273 0.9772727272727273 0.02272727272727273 0.9772727272727273 0.02272727272727273 0.9772727272727273 0.02272727272727273 0.9772727272727273 0.02272727272727273 0.9772727272727273 0.02272727272727273 0.9772727272727273 0.02272727272727273 0.9772727272727273 0.02272727272727273 0.9772727272727273 0.02272727272727273 0.9772727272727273 0.02272727272727273 0.9772727272727273 0.02272727272727273 0.9772727272727273 0.02272727272727273 0.9772727272727273 0.02272727272727273 0.9772727272727273 0.02272727272727273 0.9772727272727273 0.02272727272727273 0.9772727272727273 0.02272727272727273 0.9772727272727273 0.02272727272727273 0.9772727272727273 0.02272727272727273 0.9772727272727273 0.02272727272727273 0.9772727272727273 0.02272727272727273 0.9772727272727273 0.02272727272727273 0.9772727272727273 0.02272727272727273 0.9772727272727273 0.02272727272727273 0.9772727272727273 0.02272727272727273 0.9772727272727273 0.02272727272727273 0.9772727272727273 0.02272727272727273 0.9772727272727273 0.02272727272727273 0.9772727272727273 0.02272727272727273 0.9772727272727273 0.02272727272727273 0.9772727272727273 0.02272727272727273 0.9772727272727273 0.02272727272727273 0.9772727272727273 0.02272727272727273 0.9772727272727273 0.02272727272727273 0.9772727272727273 0.02272727272727273 0.9772727272727273 0.02272727272727273 0.9772727272727273 0.02272727272727273 0.9772727272727273 0.02272727272727273 0.9772727272727273 0.02272727272727273 0.9772727272727273 0.02272727272727273 0.9772727272727273 0.02272727272727273 0.9772727272727273 0.02272727272727273 0.9772727272727273 0.02272727272727273 0.9772727272727273 0.02272727272727273 0.9772727272727273 0.02272727272727273 0.9772727272727273 0.02272727272727273 0.5 0.5 0.5 0.5 0.5 0.5 0.5 0.5 0.5 0.5 0.5 0.5 0.5 0.5 0.5 0.5 0.5 0.5 0.5 0.5 0.5 0.5 0.5 0.5 0.5 0.5 0.5 0.5 0.5 0.5 0.5 0.5 0.5 0.5 0.5 0.5 0.5 0.5 0.5 0.5 0.5 0.5 0.5 0.5 0.5 0.5 0.5 0.5 0.5 0.5 0.5 0.5 0.5 0.5 0.5 0.5 0.5 0.5 0.5 0.5 0.5 0.5 0.5 0.5 0.5 0.5 0.5 0.5 0.5 0.5 0.5 0.5 0.5 0.5 0.5 0.5 0.5 0.5 0.5 0.5 0.5 0.5 0.5 0.5 0.5 0.5 0.5 0.5 0.5 0.5 0.5 0.5 0.5 0.5 0.5 0.5 0.9772727272727273 0.02272727272727273 0.9772727272727273 0.02272727272727273 0.9772727272727273 0.02272727272727273 0.9772727272727273 0.02272727272727273 0.9772727272727273 0.02272727272727273 0.9772727272727273 0.02272727272727273 0.9772727272727273 0.02272727272727273 0.9772727272727273 0.02272727272727273 0.9772727272727273 0.02272727272727273 0.9772727272727273 0.02272727272727273 0.9772727272727273 0.02272727272727273 0.9772727272727273 0.02272727272727273 0.9772727272727273 0.02272727272727273 0.9772727272727273 0.02272727272727273 0.9772727272727273 0.02272727272727273 0.9772727272727273 0.02272727272727273 0.9772727272727273 0.02272727272727273 0.9772727272727273 0.02272727272727273 0.9772727272727273 0.02272727272727273 0.9772727272727273 0.02272727272727273 0.9772727272727273 0.02272727272727273 0.9772727272727273 0.02272727272727273 0.9772727272727273 0.02272727272727273 0.9772727272727273 0.02272727272727273 0.9772727272727273 0.02272727272727273 0.9772727272727273 0.02272727272727273 0.9772727272727273 0.02272727272727273 0.9772727272727273 0.02272727272727273 0.9772727272727273 0.02272727272727273 0.9772727272727273 0.02272727272727273 0.9772727272727273 0.02272727272727273 0.9772727272727273 0.02272727272727273 0.9772727272727273 0.02272727272727273 0.9772727272727273 0.02272727272727273 0.9772727272727273 0.02272727272727273 0.9772727272727273 0.02272727272727273 0.9772727272727273 0.02272727272727273 0.9772727272727273 0.02272727272727273 0.9772727272727273 0.02272727272727273 0.9772727272727273 0.02272727272727273 0.9772727272727273 0.02272727272727273 0.9772727272727273 0.02272727272727273 0.9772727272727273 0.02272727272727273 0.9772727272727273 0.02272727272727273 0.9772727272727273 0.02272727272727273 0.9772727272727273 0.02272727272727273 0.9772727272727273 0.02272727272727273 0.9772727272727273 0.02272727272727273 0.5 0.5 0.5 0.5 0.5 0.5 0.5 0.5 0.5 0.5 0.5 0.5 0.5 0.5 0.5 0.5 0.5 0.5 0.5 0.5 0.5 0.5 0.5 0.5 0.5 0.5 0.5 0.5 0.5 0.5 0.5 0.5 0.5 0.5 0.5 0.5 0.5 0.5 0.5 0.5 0.5 0.5 0.5 0.5 0.5 0.5 0.5 0.5 0.5 0.5 0.5 0.5 0.5 0.5 0.5 0.5 0.5 0.5 0.5 0.5 0.5 0.5 0.5 0.5 0.5 0.5 0.5 0.5 0.5 0.5 0.5 0.5 0.5 0.5 0.5 0.5 0.5 0.5 0.5 0.5 0.5 0.5 0.5 0.5 0.5 0.5 0.5 0.5 0.5 0.5 0.5 0.5 0.5 0.5 0.5 0.5 0.9772727272727273 0.02272727272727273 0.9772727272727273 0.02272727272727273 0.9772727272727273 0.02272727272727273 0.9772727272727273 0.02272727272727273 0.9772727272727273 0.02272727272727273 0.9772727272727273 0.02272727272727273 0.9772727272727273 0.02272727272727273 0.9772727272727273 0.02272727272727273 0.9772727272727273 0.02272727272727273 0.9772727272727273 0.02272727272727273 0.9772727272727273 0.02272727272727273 0.9772727272727273 0.02272727272727273 0.9772727272727273 0.02272727272727273 0.9772727272727273 0.02272727272727273 0.9772727272727273 0.02272727272727273 0.9772727272727273 0.02272727272727273 0.9772727272727273 0.02272727272727273 0.9772727272727273 0.02272727272727273 0.9772727272727273 0.02272727272727273 0.9772727272727273 0.02272727272727273 0.9772727272727273 0.02272727272727273 0.9772727272727273 0.02272727272727273 0.9772727272727273 0.02272727272727273 0.9772727272727273 0.02272727272727273 0.9772727272727273 0.02272727272727273 0.9772727272727273 0.02272727272727273 0.9772727272727273 0.02272727272727273 0.9772727272727273 0.02272727272727273 0.9772727272727273 0.02272727272727273 0.9772727272727273 0.02272727272727273 0.9772727272727273 0.02272727272727273 0.9772727272727273 0.02272727272727273 0.9772727272727273 0.02272727272727273 0.9772727272727273 0.02272727272727273 0.9772727272727273 0.02272727272727273 0.9772727272727273 0.02272727272727273 0.9772727272727273 0.02272727272727273 0.9772727272727273 0.02272727272727273 0.9772727272727273 0.02272727272727273 0.9772727272727273 0.02272727272727273 0.9772727272727273 0.02272727272727273 0.9772727272727273 0.02272727272727273 0.9772727272727273 0.02272727272727273 0.9772727272727273 0.02272727272727273 0.9772727272727273 0.02272727272727273 0.9772727272727273 0.02272727272727273 0.9772727272727273 0.02272727272727273 0.9772727272727273 0.02272727272727273 0.5 0.5 0.5 0.5 0.5 0.5 0.5 0.5 0.5 0.5 0.5 0.5 0.5 0.5 0.5 0.5 0.5 0.5 0.5 0.5 0.5 0.5 0.5 0.5 0.5 0.5 0.5 0.5 0.5 0.5 0.5 0.5 0.5 0.5 0.5 0.5 0.5 0.5 0.5 0.5 0.5 0.5 0.5 0.5 0.5 0.5 0.5 0.5 0.5 0.5 0.5 0.5 0.5 0.5 0.5 0.5 0.5 0.5 0.5 0.5 0.5 0.5 0.5 0.5 0.5 0.5 0.5 0.5 0.5 0.5 0.5 0.5 0.5 0.5 0.5 0.5 0.5 0.5 0.5 0.5 0.5 0.5 0.5 0.5 0.5 0.5 0.5 0.5 0.5 0.5 0.5 0.5 0.5 0.5 0.5 0.5 0.9772727272727273 0.02272727272727273 0.9772727272727273 0.02272727272727273 0.9772727272727273 0.02272727272727273 0.9772727272727273 0.02272727272727273 0.9772727272727273 0.02272727272727273 0.9772727272727273 0.02272727272727273 0.9772727272727273 0.02272727272727273 0.9772727272727273 0.02272727272727273 0.9772727272727273 0.02272727272727273 0.9772727272727273 0.02272727272727273 0.9772727272727273 0.02272727272727273 0.9772727272727273 0.02272727272727273 0.9772727272727273 0.02272727272727273 0.9772727272727273 0.02272727272727273 0.9772727272727273 0.02272727272727273 0.9772727272727273 0.02272727272727273 0.9772727272727273 0.02272727272727273 0.9772727272727273 0.02272727272727273 0.9772727272727273 0.02272727272727273 0.9772727272727273 0.02272727272727273 0.9772727272727273 0.02272727272727273 0.9772727272727273 0.02272727272727273 0.9772727272727273 0.02272727272727273 0.9772727272727273 0.02272727272727273 0.9772727272727273 0.02272727272727273 0.9772727272727273 0.02272727272727273 0.9772727272727273 0.02272727272727273 0.9772727272727273 0.02272727272727273 0.9772727272727273 0.02272727272727273 0.9772727272727273 0.02272727272727273 0.9772727272727273 0.02272727272727273 0.9772727272727273 0.02272727272727273 0.9772727272727273 0.02272727272727273 0.9772727272727273 0.02272727272727273 0.9772727272727273 0.02272727272727273 0.9772727272727273 0.02272727272727273 0.9772727272727273 0.02272727272727273 0.9772727272727273 0.02272727272727273 0.9772727272727273 0.02272727272727273 0.9772727272727273 0.02272727272727273 0.9772727272727273 0.02272727272727273 0.9772727272727273 0.02272727272727273 0.9772727272727273 0.02272727272727273 0.9772727272727273 0.02272727272727273 0.9772727272727273 0.02272727272727273 0.9772727272727273 0.02272727272727273 0.9772727272727273 0.02272727272727273 0.9772727272727273 0.02272727272727273 0.5 0.5 0.5 0.5 0.5 0.5 0.5 0.5 0.5 0.5 0.5 0.5 0.5 0.5 0.5 0.5 0.5 0.5 0.5 0.5 0.5 0.5 0.5 0.5 0.5 0.5 0.5 0.5 0.5 0.5 0.5 0.5 0.5 0.5 0.5 0.5 0.5 0.5 0.5 0.5 0.5 0.5 0.5 0.5 0.5 0.5 0.5 0.5 0.5 0.5 0.5 0.5 0.5 0.5 0.5 0.5 0.5 0.5 0.5 0.5 0.5 0.5 0.5 0.5 0.5 0.5 0.5 0.5 0.5 0.5 0.5 0.5 0.5 0.5 0.5 0.5 0.5 0.5 0.5 0.5 0.5 0.5 0.5 0.5 0.5 0.5 0.5 0.5 0.5 0.5 0.5 0.5 0.5 0.5 0.5 0.5 0.9772727272727273 0.02272727272727273 0.9772727272727273 0.02272727272727273 0.9772727272727273 0.02272727272727273 0.9772727272727273 0.02272727272727273 0.9772727272727273 0.02272727272727273 0.9772727272727273 0.02272727272727273 0.9772727272727273 0.02272727272727273 0.9772727272727273 0.02272727272727273 0.9772727272727273 0.02272727272727273 0.9772727272727273 0.02272727272727273 0.9772727272727273 0.02272727272727273 0.9772727272727273 0.02272727272727273 0.9772727272727273 0.02272727272727273 0.9772727272727273 0.02272727272727273 0.9772727272727273 0.02272727272727273 0.9772727272727273 0.02272727272727273 0.9772727272727273 0.02272727272727273 0.9772727272727273 0.02272727272727273 0.9772727272727273 0.02272727272727273 0.9772727272727273 0.02272727272727273 0.9772727272727273 0.02272727272727273 0.9772727272727273 0.02272727272727273 0.9772727272727273 0.02272727272727273 0.9772727272727273 0.02272727272727273 0.9772727272727273 0.02272727272727273 0.9772727272727273 0.02272727272727273 0.9772727272727273 0.02272727272727273 0.9772727272727273 0.02272727272727273 0.9772727272727273 0.02272727272727273 0.9772727272727273 0.02272727272727273 0.9772727272727273 0.02272727272727273 0.9772727272727273 0.02272727272727273 0.9772727272727273 0.02272727272727273 0.9772727272727273 0.02272727272727273 0.9772727272727273 0.02272727272727273 0.9772727272727273 0.02272727272727273 0.9772727272727273 0.02272727272727273 0.9772727272727273 0.02272727272727273 0.9772727272727273 0.02272727272727273 0.9772727272727273 0.02272727272727273 0.9772727272727273 0.02272727272727273 0.9772727272727273 0.02272727272727273 0.9772727272727273 0.02272727272727273 0.9772727272727273 0.02272727272727273 0.9772727272727273 0.02272727272727273 0.9772727272727273 0.02272727272727273 0.9772727272727273 0.02272727272727273 0.9772727272727273 0.02272727272727273 0.5 0.5 0.5 0.5 0.5 0.5 0.5 0.5 0.5 0.5 0.5 0.5 0.5 0.5 0.5 0.5 0.5 0.5 0.5 0.5 0.5 0.5 0.5 0.5 0.5 0.5 0.5 0.5 0.5 0.5 0.5 0.5 0.5 0.5 0.5 0.5 0.5 0.5 0.5 0.5 0.5 0.5 0.5 0.5 0.5 0.5 0.5 0.5 0.5 0.5 0.5 0.5 0.5 0.5 0.5 0.5 0.5 0.5 0.5 0.5 0.5 0.5 0.5 0.5 0.5 0.5 0.5 0.5 0.5 0.5 0.5 0.5 0.5 0.5 0.5 0.5 0.5 0.5 0.5 0.5 0.5 0.5 0.5 0.5 0.5 0.5 0.5 0.5 0.5 0.5 0.5 0.5 0.5 0.5 0.5 0.5</probabilities>
		</cpt>
		<cpt id="retweet">
			<state id="NO" />
			<state id="YES" />
			<parents>interesting replied mentioned last_tweet_time following_author following_mentionedUsers info_type</parents>
			<probabilities>0.0625 0.9375 0.0625 0.9375 0.0625 0.9375 0.0625 0.9375 0.0625 0.9375 0.0625 0.9375 0.0625 0.9375 0.0625 0.9375 0.0625 0.9375 0.0625 0.9375 0.0625 0.9375 0.0625 0.9375 0.0625 0.9375 0.0625 0.9375 0.0625 0.9375 0.0625 0.9375 0.0625 0.9375 0.0625 0.9375 0.0625 0.9375 0.0625 0.9375 0.0625 0.9375 0.0625 0.9375 0.0625 0.9375 0.0625 0.9375 0.5 0.5 0.5 0.5 0.5 0.5 0.5 0.5 0.5 0.5 0.5 0.5 0.5 0.5 0.5 0.5 0.5 0.5 0.5 0.5 0.5 0.5 0.5 0.5 0.5 0.5 0.5 0.5 0.5 0.5 0.5 0.5 0.5 0.5 0.5 0.5 0.5 0.5 0.5 0.5 0.5 0.5 0.5 0.5 0.5 0.5 0.5 0.5 0.0625 0.9375 0.0625 0.9375 0.0625 0.9375 0.0625 0.9375 0.0625 0.9375 0.0625 0.9375 0.0625 0.9375 0.0625 0.9375 0.0625 0.9375 0.0625 0.9375 0.0625 0.9375 0.0625 0.9375 0.0625 0.9375 0.0625 0.9375 0.0625 0.9375 0.0625 0.9375 0.0625 0.9375 0.0625 0.9375 0.0625 0.9375 0.0625 0.9375 0.0625 0.9375 0.0625 0.9375 0.0625 0.9375 0.0625 0.9375 0.5 0.5 0.5 0.5 0.5 0.5 0.5 0.5 0.5 0.5 0.5 0.5 0.5 0.5 0.5 0.5 0.5 0.5 0.5 0.5 0.5 0.5 0.5 0.5 0.5 0.5 0.5 0.5 0.5 0.5 0.5 0.5 0.5 0.5 0.5 0.5 0.5 0.5 0.5 0.5 0.5 0.5 0.5 0.5 0.5 0.5 0.5 0.5 0.0625 0.9375 0.0625 0.9375 0.0625 0.9375 0.0625 0.9375 0.0625 0.9375 0.0625 0.9375 0.0625 0.9375 0.0625 0.9375 0.0625 0.9375 0.0625 0.9375 0.0625 0.9375 0.0625 0.9375 0.0625 0.9375 0.0625 0.9375 0.0625 0.9375 0.0625 0.9375 0.0625 0.9375 0.0625 0.9375 0.0625 0.9375 0.0625 0.9375 0.0625 0.9375 0.0625 0.9375 0.0625 0.9375 0.0625 0.9375 0.5 0.5 0.5 0.5 0.5 0.5 0.5 0.5 0.5 0.5 0.5 0.5 0.5 0.5 0.5 0.5 0.5 0.5 0.5 0.5 0.5 0.5 0.5 0.5 0.5 0.5 0.5 0.5 0.5 0.5 0.5 0.5 0.5 0.5 0.5 0.5 0.5 0.5 0.5 0.5 0.5 0.5 0.5 0.5 0.5 0.5 0.5 0.5 0.0625 0.9375 0.0625 0.9375 0.0625 0.9375 0.0625 0.9375 0.0625 0.9375 0.0625 0.9375 0.0625 0.9375 0.0625 0.9375 0.0625 0.9375 0.0625 0.9375 0.0625 0.9375 0.0625 0.9375 0.0625 0.9375 0.0625 0.9375 0.0625 0.9375 0.0625 0.9375 0.0625 0.9375 0.0625 0.9375 0.0625 0.9375 0.0625 0.9375 0.0625 0.9375 0.0625 0.9375 0.0625 0.9375 0.0625 0.9375 0.5 0.5 0.5 0.5 0.5 0.5 0.5 0.5 0.5 0.5 0.5 0.5 0.5 0.5 0.5 0.5 0.5 0.5 0.5 0.5 0.5 0.5 0.5 0.5 0.5 0.5 0.5 0.5 0.5 0.5 0.5 0.5 0.5 0.5 0.5 0.5 0.5 0.5 0.5 0.5 0.5 0.5 0.5 0.5 0.5 0.5 0.5 0.5 0.0625 0.9375 0.0625 0.9375 0.0625 0.9375 0.0625 0.9375 0.0625 0.9375 0.0625 0.9375 0.0625 0.9375 0.0625 0.9375 0.0625 0.9375 0.0625 0.9375 0.0625 0.9375 0.0625 0.9375 0.0625 0.9375 0.0625 0.9375 0.0625 0.9375 0.0625 0.9375 0.0625 0.9375 0.0625 0.9375 0.0625 0.9375 0.0625 0.9375 0.0625 0.9375 0.0625 0.9375 0.0625 0.9375 0.0625 0.9375 0.5 0.5 0.5 0.5 0.5 0.5 0.5 0.5 0.5 0.5 0.5 0.5 0.5 0.5 0.5 0.5 0.5 0.5 0.5 0.5 0.5 0.5 0.5 0.5 0.5 0.5 0.5 0.5 0.5 0.5 0.5 0.5 0.5 0.5 0.5 0.5 0.5 0.5 0.5 0.5 0.5 0.5 0.5 0.5 0.5 0.5 0.5 0.5 0.0625 0.9375 0.0625 0.9375 0.0625 0.9375 0.0625 0.9375 0.0625 0.9375 0.0625 0.9375 0.0625 0.9375 0.0625 0.9375 0.0625 0.9375 0.0625 0.9375 0.0625 0.9375 0.0625 0.9375 0.0625 0.9375 0.0625 0.9375 0.0625 0.9375 0.0625 0.9375 0.0625 0.9375 0.0625 0.9375 0.0625 0.9375 0.0625 0.9375 0.0625 0.9375 0.0625 0.9375 0.0625 0.9375 0.0625 0.9375 0.5 0.5 0.5 0.5 0.5 0.5 0.5 0.5 0.5 0.5 0.5 0.5 0.5 0.5 0.5 0.5 0.5 0.5 0.5 0.5 0.5 0.5 0.5 0.5 0.5 0.5 0.5 0.5 0.5 0.5 0.5 0.5 0.5 0.5 0.5 0.5 0.5 0.5 0.5 0.5 0.5 0.5 0.5 0.5 0.5 0.5 0.5 0.5 0.0625 0.9375 0.0625 0.9375 0.0625 0.9375 0.0625 0.9375 0.0625 0.9375 0.0625 0.9375 0.0625 0.9375 0.0625 0.9375 0.0625 0.9375 0.0625 0.9375 0.0625 0.9375 0.0625 0.9375 0.0625 0.9375 0.0625 0.9375 0.0625 0.9375 0.0625 0.9375 0.0625 0.9375 0.0625 0.9375 0.0625 0.9375 0.0625 0.9375 0.0625 0.9375 0.0625 0.9375 0.0625 0.9375 0.0625 0.9375 0.5 0.5 0.5 0.5 0.5 0.5 0.5 0.5 0.5 0.5 0.5 0.5 0.5 0.5 0.5 0.5 0.5 0.5 0.5 0.5 0.5 0.5 0.5 0.5 0.5 0.5 0.5 0.5 0.5 0.5 0.5 0.5 0.5 0.5 0.5 0.5 0.5 0.5 0.5 0.5 0.5 0.5 0.5 0.5 0.5 0.5 0.5 0.5 0.0625 0.9375 0.0625 0.9375 0.0625 0.9375 0.0625 0.9375 0.0625 0.9375 0.0625 0.9375 0.0625 0.9375 0.0625 0.9375 0.0625 0.9375 0.0625 0.9375 0.0625 0.9375 0.0625 0.9375 0.0625 0.9375 0.0625 0.9375 0.0625 0.9375 0.0625 0.9375 0.0625 0.9375 0.0625 0.9375 0.0625 0.9375 0.0625 0.9375 0.0625 0.9375 0.0625 0.9375 0.0625 0.9375 0.0625 0.9375 0.5 0.5 0.5 0.5 0.5 0.5 0.5 0.5 0.5 0.5 0.5 0.5 0.5 0.5 0.5 0.5 0.5 0.5 0.5 0.5 0.5 0.5 0.5 0.5 0.5 0.5 0.5 0.5 0.5 0.5 0.5 0.5 0.5 0.5 0.5 0.5 0.5 0.5 0.5 0.5 0.5 0.5 0.5 0.5 0.5 0.5 0.5 0.5</probabilities>
		</cpt>
		<cpt id="favorite">
			<state id="NO" />
			<state id="YES" />
			<parents>interesting replied mentioned last_tweet_time following_author following_mentionedUsers info_type</parents>
			<probabilities>0.8125 0.1875 0.8125 0.1875 0.8125 0.1875 0.8125 0.1875 0.8125 0.1875 0.8125 0.1875 0.8125 0.1875 0.8125 0.1875 0.8125 0.1875 0.8125 0.1875 0.8125 0.1875 0.8125 0.1875 0.8125 0.1875 0.8125 0.1875 0.8125 0.1875 0.8125 0.1875 0.8125 0.1875 0.8125 0.1875 0.8125 0.1875 0.8125 0.1875 0.8125 0.1875 0.8125 0.1875 0.8125 0.1875 0.8125 0.1875 0.5 0.5 0.5 0.5 0.5 0.5 0.5 0.5 0.5 0.5 0.5 0.5 0.5 0.5 0.5 0.5 0.5 0.5 0.5 0.5 0.5 0.5 0.5 0.5 0.5 0.5 0.5 0.5 0.5 0.5 0.5 0.5 0.5 0.5 0.5 0.5 0.5 0.5 0.5 0.5 0.5 0.5 0.5 0.5 0.5 0.5 0.5 0.5 0.8125 0.1875 0.8125 0.1875 0.8125 0.1875 0.8125 0.1875 0.8125 0.1875 0.8125 0.1875 0.8125 0.1875 0.8125 0.1875 0.8125 0.1875 0.8125 0.1875 0.8125 0.1875 0.8125 0.1875 0.8125 0.1875 0.8125 0.1875 0.8125 0.1875 0.8125 0.1875 0.8125 0.1875 0.8125 0.1875 0.8125 0.1875 0.8125 0.1875 0.8125 0.1875 0.8125 0.1875 0.8125 0.1875 0.8125 0.1875 0.5 0.5 0.5 0.5 0.5 0.5 0.5 0.5 0.5 0.5 0.5 0.5 0.5 0.5 0.5 0.5 0.5 0.5 0.5 0.5 0.5 0.5 0.5 0.5 0.5 0.5 0.5 0.5 0.5 0.5 0.5 0.5 0.5 0.5 0.5 0.5 0.5 0.5 0.5 0.5 0.5 0.5 0.5 0.5 0.5 0.5 0.5 0.5 0.8125 0.1875 0.8125 0.1875 0.8125 0.1875 0.8125 0.1875 0.8125 0.1875 0.8125 0.1875 0.8125 0.1875 0.8125 0.1875 0.8125 0.1875 0.8125 0.1875 0.8125 0.1875 0.8125 0.1875 0.8125 0.1875 0.8125 0.1875 0.8125 0.1875 0.8125 0.1875 0.8125 0.1875 0.8125 0.1875 0.8125 0.1875 0.8125 0.1875 0.8125 0.1875 0.8125 0.1875 0.8125 0.1875 0.8125 0.1875 0.5 0.5 0.5 0.5 0.5 0.5 0.5 0.5 0.5 0.5 0.5 0.5 0.5 0.5 0.5 0.5 0.5 0.5 0.5 0.5 0.5 0.5 0.5 0.5 0.5 0.5 0.5 0.5 0.5 0.5 0.5 0.5 0.5 0.5 0.5 0.5 0.5 0.5 0.5 0.5 0.5 0.5 0.5 0.5 0.5 0.5 0.5 0.5 0.8125 0.1875 0.8125 0.1875 0.8125 0.1875 0.8125 0.1875 0.8125 0.1875 0.8125 0.1875 0.8125 0.1875 0.8125 0.1875 0.8125 0.1875 0.8125 0.1875 0.8125 0.1875 0.8125 0.1875 0.8125 0.1875 0.8125 0.1875 0.8125 0.1875 0.8125 0.1875 0.8125 0.1875 0.8125 0.1875 0.8125 0.1875 0.8125 0.1875 0.8125 0.1875 0.8125 0.1875 0.8125 0.1875 0.8125 0.1875 0.5 0.5 0.5 0.5 0.5 0.5 0.5 0.5 0.5 0.5 0.5 0.5 0.5 0.5 0.5 0.5 0.5 0.5 0.5 0.5 0.5 0.5 0.5 0.5 0.5 0.5 0.5 0.5 0.5 0.5 0.5 0.5 0.5 0.5 0.5 0.5 0.5 0.5 0.5 0.5 0.5 0.5 0.5 0.5 0.5 0.5 0.5 0.5 0.8125 0.1875 0.8125 0.1875 0.8125 0.1875 0.8125 0.1875 0.8125 0.1875 0.8125 0.1875 0.8125 0.1875 0.8125 0.1875 0.8125 0.1875 0.8125 0.1875 0.8125 0.1875 0.8125 0.1875 0.8125 0.1875 0.8125 0.1875 0.8125 0.1875 0.8125 0.1875 0.8125 0.1875 0.8125 0.1875 0.8125 0.1875 0.8125 0.1875 0.8125 0.1875 0.8125 0.1875 0.8125 0.1875 0.8125 0.1875 0.5 0.5 0.5 0.5 0.5 0.5 0.5 0.5 0.5 0.5 0.5 0.5 0.5 0.5 0.5 0.5 0.5 0.5 0.5 0.5 0.5 0.5 0.5 0.5 0.5 0.5 0.5 0.5 0.5 0.5 0.5 0.5 0.5 0.5 0.5 0.5 0.5 0.5 0.5 0.5 0.5 0.5 0.5 0.5 0.5 0.5 0.5 0.5 0.8125 0.1875 0.8125 0.1875 0.8125 0.1875 0.8125 0.1875 0.8125 0.1875 0.8125 0.1875 0.8125 0.1875 0.8125 0.1875 0.8125 0.1875 0.8125 0.1875 0.8125 0.1875 0.8125 0.1875 0.8125 0.1875 0.8125 0.1875 0.8125 0.1875 0.8125 0.1875 0.8125 0.1875 0.8125 0.1875 0.8125 0.1875 0.8125 0.1875 0.8125 0.1875 0.8125 0.1875 0.8125 0.1875 0.8125 0.1875 0.5 0.5 0.5 0.5 0.5 0.5 0.5 0.5 0.5 0.5 0.5 0.5 0.5 0.5 0.5 0.5 0.5 0.5 0.5 0.5 0.5 0.5 0.5 0.5 0.5 0.5 0.5 0.5 0.5 0.5 0.5 0.5 0.5 0.5 0.5 0.5 0.5 0.5 0.5 0.5 0.5 0.5 0.5 0.5 0.5 0.5 0.5 0.5 0.8125 0.1875 0.8125 0.1875 0.8125 0.1875 0.8125 0.1875 0.8125 0.1875 0.8125 0.1875 0.8125 0.1875 0.8125 0.1875 0.8125 0.1875 0.8125 0.1875 0.8125 0.1875 0.8125 0.1875 0.8125 0.1875 0.8125 0.1875 0.8125 0.1875 0.8125 0.1875 0.8125 0.1875 0.8125 0.1875 0.8125 0.1875 0.8125 0.1875 0.8125 0.1875 0.8125 0.1875 0.8125 0.1875 0.8125 0.1875 0.5 0.5 0.5 0.5 0.5 0.5 0.5 0.5 0.5 0.5 0.5 0.5 0.5 0.5 0.5 0.5 0.5 0.5 0.5 0.5 0.5 0.5 0.5 0.5 0.5 0.5 0.5 0.5 0.5 0.5 0.5 0.5 0.5 0.5 0.5 0.5 0.5 0.5 0.5 0.5 0.5 0.5 0.5 0.5 0.5 0.5 0.5 0.5 0.8125 0.1875 0.8125 0.1875 0.8125 0.1875 0.8125 0.1875 0.8125 0.1875 0.8125 0.1875 0.8125 0.1875 0.8125 0.1875 0.8125 0.1875 0.8125 0.1875 0.8125 0.1875 0.8125 0.1875 0.8125 0.1875 0.8125 0.1875 0.8125 0.1875 0.8125 0.1875 0.8125 0.1875 0.8125 0.1875 0.8125 0.1875 0.8125 0.1875 0.8125 0.1875 0.8125 0.1875 0.8125 0.1875 0.8125 0.1875 0.5 0.5 0.5 0.5 0.5 0.5 0.5 0.5 0.5 0.5 0.5 0.5 0.5 0.5 0.5 0.5 0.5 0.5 0.5 0.5 0.5 0.5 0.5 0.5 0.5 0.5 0.5 0.5 0.5 0.5 0.5 0.5 0.5 0.5 0.5 0.5 0.5 0.5 0.5 0.5 0.5 0.5 0.5 0.5 0.5 0.5 0.5 0.5</probabilities>
		</cpt>
		<cpt id="publish_reply">
			<state id="NO" />
			<state id="YES" />
			<parents>interesting replied mentioned last_tweet_time following_author following_mentionedUsers info_type</parents>
			<probabilities>0.9666666666666667 0.03333333333333333 0.9666666666666667 0.03333333333333333 0.9666666666666667 0.03333333333333333 0.9666666666666667 0.03333333333333333 0.9666666666666667 0.03333333333333333 0.9666666666666667 0.03333333333333333 0.9666666666666667 0.03333333333333333 0.9666666666666667 0.03333333333333333 0.9666666666666667 0.03333333333333333 0.9666666666666667 0.03333333333333333 0.9666666666666667 0.03333333333333333 0.9666666666666667 0.03333333333333333 0.9666666666666667 0.03333333333333333 0.9666666666666667 0.03333333333333333 0.9666666666666667 0.03333333333333333 0.9666666666666667 0.03333333333333333 0.9666666666666667 0.03333333333333333 0.9666666666666667 0.03333333333333333 0.9666666666666667 0.03333333333333333 0.9666666666666667 0.03333333333333333 0.9666666666666667 0.03333333333333333 0.9666666666666667 0.03333333333333333 0.9666666666666667 0.03333333333333333 0.9666666666666667 0.03333333333333333 0.5 0.5 0.5 0.5 0.5 0.5 0.5 0.5 0.5 0.5 0.5 0.5 0.5 0.5 0.5 0.5 0.5 0.5 0.5 0.5 0.5 0.5 0.5 0.5 0.5 0.5 0.5 0.5 0.5 0.5 0.5 0.5 0.5 0.5 0.5 0.5 0.5 0.5 0.5 0.5 0.5 0.5 0.5 0.5 0.5 0.5 0.5 0.5 0.9666666666666667 0.03333333333333333 0.9666666666666667 0.03333333333333333 0.9666666666666667 0.03333333333333333 0.9666666666666667 0.03333333333333333 0.9666666666666667 0.03333333333333333 0.9666666666666667 0.03333333333333333 0.9666666666666667 0.03333333333333333 0.9666666666666667 0.03333333333333333 0.9666666666666667 0.03333333333333333 0.9666666666666667 0.03333333333333333 0.9666666666666667 0.03333333333333333 0.9666666666666667 0.03333333333333333 0.9666666666666667 0.03333333333333333 0.9666666666666667 0.03333333333333333 0.9666666666666667 0.03333333333333333 0.9666666666666667 0.03333333333333333 0.9666666666666667 0.03333333333333333 0.9666666666666667 0.03333333333333333 0.9666666666666667 0.03333333333333333 0.9666666666666667 0.03333333333333333 0.9666666666666667 0.03333333333333333 0.9666666666666667 0.03333333333333333 0.9666666666666667 0.03333333333333333 0.9666666666666667 0.03333333333333333 0.5 0.5 0.5 0.5 0.5 0.5 0.5 0.5 0.5 0.5 0.5 0.5 0.5 0.5 0.5 0.5 0.5 0.5 0.5 0.5 0.5 0.5 0.5 0.5 0.5 0.5 0.5 0.5 0.5 0.5 0.5 0.5 0.5 0.5 0.5 0.5 0.5 0.5 0.5 0.5 0.5 0.5 0.5 0.5 0.5 0.5 0.5 0.5 0.9666666666666667 0.03333333333333333 0.9666666666666667 0.03333333333333333 0.9666666666666667 0.03333333333333333 0.9666666666666667 0.03333333333333333 0.9666666666666667 0.03333333333333333 0.9666666666666667 0.03333333333333333 0.9666666666666667 0.03333333333333333 0.9666666666666667 0.03333333333333333 0.9666666666666667 0.03333333333333333 0.9666666666666667 0.03333333333333333 0.9666666666666667 0.03333333333333333 0.9666666666666667 0.03333333333333333 0.9666666666666667 0.03333333333333333 0.9666666666666667 0.03333333333333333 0.9666666666666667 0.03333333333333333 0.9666666666666667 0.03333333333333333 0.9666666666666667 0.03333333333333333 0.9666666666666667 0.03333333333333333 0.9666666666666667 0.03333333333333333 0.9666666666666667 0.03333333333333333 0.9666666666666667 0.03333333333333333 0.9666666666666667 0.03333333333333333 0.9666666666666667 0.03333333333333333 0.9666666666666667 0.03333333333333333 0.5 0.5 0.5 0.5 0.5 0.5 0.5 0.5 0.5 0.5 0.5 0.5 0.5 0.5 0.5 0.5 0.5 0.5 0.5 0.5 0.5 0.5 0.5 0.5 0.5 0.5 0.5 0.5 0.5 0.5 0.5 0.5 0.5 0.5 0.5 0.5 0.5 0.5 0.5 0.5 0.5 0.5 0.5 0.5 0.5 0.5 0.5 0.5 0.9666666666666667 0.03333333333333333 0.9666666666666667 0.03333333333333333 0.9666666666666667 0.03333333333333333 0.9666666666666667 0.03333333333333333 0.9666666666666667 0.03333333333333333 0.9666666666666667 0.03333333333333333 0.9666666666666667 0.03333333333333333 0.9666666666666667 0.03333333333333333 0.9666666666666667 0.03333333333333333 0.9666666666666667 0.03333333333333333 0.9666666666666667 0.03333333333333333 0.9666666666666667 0.03333333333333333 0.9666666666666667 0.03333333333333333 0.9666666666666667 0.03333333333333333 0.9666666666666667 0.03333333333333333 0.9666666666666667 0.03333333333333333 0.9666666666666667 0.03333333333333333 0.9666666666666667 0.03333333333333333 0.9666666666666667 0.03333333333333333 0.9666666666666667 0.03333333333333333 0.9666666666666667 0.03333333333333333 0.9666666666666667 0.03333333333333333 0.9666666666666667 0.03333333333333333 0.9666666666666667 0.03333333333333333 0.5 0.5 0.5 0.5 0.5 0.5 0.5 0.5 0.5 0.5 0.5 0.5 0.5 0.5 0.5 0.5 0.5 0.5 0.5 0.5 0.5 0.5 0.5 0.5 0.5 0.5 0.5 0.5 0.5 0.5 0.5 0.5 0.5 0.5 0.5 0.5 0.5 0.5 0.5 0.5 0.5 0.5 0.5 0.5 0.5 0.5 0.5 0.5 0.9666666666666667 0.03333333333333333 0.9666666666666667 0.03333333333333333 0.9666666666666667 0.03333333333333333 0.9666666666666667 0.03333333333333333 0.9666666666666667 0.03333333333333333 0.9666666666666667 0.03333333333333333 0.9666666666666667 0.03333333333333333 0.9666666666666667 0.03333333333333333 0.9666666666666667 0.03333333333333333 0.9666666666666667 0.03333333333333333 0.9666666666666667 0.03333333333333333 0.9666666666666667 0.03333333333333333 0.9666666666666667 0.03333333333333333 0.9666666666666667 0.03333333333333333 0.9666666666666667 0.03333333333333333 0.9666666666666667 0.03333333333333333 0.9666666666666667 0.03333333333333333 0.9666666666666667 0.03333333333333333 0.9666666666666667 0.03333333333333333 0.9666666666666667 0.03333333333333333 0.9666666666666667 0.03333333333333333 0.9666666666666667 0.03333333333333333 0.9666666666666667 0.03333333333333333 0.9666666666666667 0.03333333333333333 0.5 0.5 0.5 0.5 0.5 0.5 0.5 0.5 0.5 0.5 0.5 0.5 0.5 0.5 0.5 0.5 0.5 0.5 0.5 0.5 0.5 0.5 0.5 0.5 0.5 0.5 0.5 0.5 0.5 0.5 0.5 0.5 0.5 0.5 0.5 0.5 0.5 0.5 0.5 0.5 0.5 0.5 0.5 0.5 0.5 0.5 0.5 0.5 0.9666666666666667 0.03333333333333333 0.9666666666666667 0.03333333333333333 0.9666666666666667 0.03333333333333333 0.9666666666666667 0.03333333333333333 0.9666666666666667 0.03333333333333333 0.9666666666666667 0.03333333333333333 0.9666666666666667 0.03333333333333333 0.9666666666666667 0.03333333333333333 0.9666666666666667 0.03333333333333333 0.9666666666666667 0.03333333333333333 0.9666666666666667 0.03333333333333333 0.9666666666666667 0.03333333333333333 0.9666666666666667 0.03333333333333333 0.9666666666666667 0.03333333333333333 0.9666666666666667 0.03333333333333333 0.9666666666666667 0.03333333333333333 0.9666666666666667 0.03333333333333333 0.9666666666666667 0.03333333333333333 0.9666666666666667 0.03333333333333333 0.9666666666666667 0.03333333333333333 0.9666666666666667 0.03333333333333333 0.9666666666666667 0.03333333333333333 0.9666666666666667 0.03333333333333333 0.9666666666666667 0.03333333333333333 0.5 0.5 0.5 0.5 0.5 0.5 0.5 0.5 0.5 0.5 0.5 0.5 0.5 0.5 0.5 0.5 0.5 0.5 0.5 0.5 0.5 0.5 0.5 0.5 0.5 0.5 0.5 0.5 0.5 0.5 0.5 0.5 0.5 0.5 0.5 0.5 0.5 0.5 0.5 0.5 0.5 0.5 0.5 0.5 0.5 0.5 0.5 0.5 0.9666666666666667 0.03333333333333333 0.9666666666666667 0.03333333333333333 0.9666666666666667 0.03333333333333333 0.9666666666666667 0.03333333333333333 0.9666666666666667 0.03333333333333333 0.9666666666666667 0.03333333333333333 0.9666666666666667 0.03333333333333333 0.9666666666666667 0.03333333333333333 0.9666666666666667 0.03333333333333333 0.9666666666666667 0.03333333333333333 0.9666666666666667 0.03333333333333333 0.9666666666666667 0.03333333333333333 0.9666666666666667 0.03333333333333333 0.9666666666666667 0.03333333333333333 0.9666666666666667 0.03333333333333333 0.9666666666666667 0.03333333333333333 0.9666666666666667 0.03333333333333333 0.9666666666666667 0.03333333333333333 0.9666666666666667 0.03333333333333333 0.9666666666666667 0.03333333333333333 0.9666666666666667 0.03333333333333333 0.9666666666666667 0.03333333333333333 0.9666666666666667 0.03333333333333333 0.9666666666666667 0.03333333333333333 0.5 0.5 0.5 0.5 0.5 0.5 0.5 0.5 0.5 0.5 0.5 0.5 0.5 0.5 0.5 0.5 0.5 0.5 0.5 0.5 0.5 0.5 0.5 0.5 0.5 0.5 0.5 0.5 0.5 0.5 0.5 0.5 0.5 0.5 0.5 0.5 0.5 0.5 0.5 0.5 0.5 0.5 0.5 0.5 0.5 0.5 0.5 0.5 0.9666666666666667 0.03333333333333333 0.9666666666666667 0.03333333333333333 0.9666666666666667 0.03333333333333333 0.9666666666666667 0.03333333333333333 0.9666666666666667 0.03333333333333333 0.9666666666666667 0.03333333333333333 0.9666666666666667 0.03333333333333333 0.9666666666666667 0.03333333333333333 0.9666666666666667 0.03333333333333333 0.9666666666666667 0.03333333333333333 0.9666666666666667 0.03333333333333333 0.9666666666666667 0.03333333333333333 0.9666666666666667 0.03333333333333333 0.9666666666666667 0.03333333333333333 0.9666666666666667 0.03333333333333333 0.9666666666666667 0.03333333333333333 0.9666666666666667 0.03333333333333333 0.9666666666666667 0.03333333333333333 0.9666666666666667 0.03333333333333333 0.9666666666666667 0.03333333333333333 0.9666666666666667 0.03333333333333333 0.9666666666666667 0.03333333333333333 0.9666666666666667 0.03333333333333333 0.9666666666666667 0.03333333333333333 0.5 0.5 0.5 0.5 0.5 0.5 0.5 0.5 0.5 0.5 0.5 0.5 0.5 0.5 0.5 0.5 0.5 0.5 0.5 0.5 0.5 0.5 0.5 0.5 0.5 0.5 0.5 0.5 0.5 0.5 0.5 0.5 0.5 0.5 0.5 0.5 0.5 0.5 0.5 0.5 0.5 0.5 0.5 0.5 0.5 0.5 0.5 0.5</probabilities>
		</cpt>
		<cpt id="send_DM">
			<state id="NO" />
			<state id="YES" />
			<parents>last_tweet_time following_mentionedUsers following_author mentioned replied interesting info_type</parents>
			<probabilities>0.5 0.5 0.5 0.5 0.5 0.5 0.5 0.5 0.5 0.5 0.5 0.5 0.5 0.5 0.5 0.5 0.5 0.5 0.5 0.5 0.5 0.5 0.5 0.5 0.5 0.5 0.5 0.5 0.5 0.5 0.5 0.5 0.5 0.5 0.5 0.5 0.5 0.5 0.5 0.5 0.5 0.5 0.5 0.5 0.5 0.5 0.5 0.5 0.5 0.5 0.5 0.5 0.5 0.5 0.5 0.5 0.5 0.5 0.5 0.5 0.5 0.5 0.5 0.5 0.5 0.5 0.5 0.5 0.5 0.5 0.5 0.5 0.5 0.5 0.5 0.5 0.5 0.5 0.5 0.5 0.5 0.5 0.5 0.5 0.5 0.5 0.5 0.5 0.5 0.5 0.5 0.5 0.5 0.5 0.5 0.5 0.5 0.5 0.5 0.5 0.5 0.5 0.5 0.5 0.5 0.5 0.5 0.5 0.5 0.5 0.5 0.5 0.5 0.5 0.5 0.5 0.5 0.5 0.5 0.5 0.5 0.5 0.5 0.5 0.5 0.5 0.5 0.5 0.5 0.5 0.5 0.5 0.5 0.5 0.5 0.5 0.5 0.5 0.5 0.5 0.5 0.5 0.5 0.5 0.5 0.5 0.5 0.5 0.5 0.5 0.5 0.5 0.5 0.5 0.5 0.5 0.5 0.5 0.5 0.5 0.5 0.5 0.5 0.5 0.5 0.5 0.5 0.5 0.5 0.5 0.5 0.5 0.5 0.5 0.5 0.5 0.5 0.5 0.5 0.5 0.5 0.5 0.5 0.5 0.5 0.5 0.5 0.5 0.5 0.5 0.5 0.5 0.5 0.5 0.5 0.5 0.5 0.5 0.5 0.5 0.5 0.5 0.5 0.5 0.5 0.5 0.5 0.5 0.5 0.5 0.5 0.5 0.5 0.5 0.5 0.5 0.5 0.5 0.5 0.5 0.5 0.5 0.5 0.5 0.5 0.5 0.5 0.5 0.5 0.5 0.5 0.5 0.5 0.5 0.5 0.5 0.5 0.5 0.5 0.5 0.5 0.5 0.5 0.5 0.5 0.5 0.5 0.5 0.5 0.5 0.5 0.5 0.5 0.5 0.5 0.5 0.5 0.5 0.5 0.5 0.5 0.5 0.5 0.5 0.5 0.5 0.5 0.5 0.5 0.5 0.5 0.5 0.5 0.5 0.5 0.5 0.5 0.5 0.5 0.5 0.5 0.5 0.5 0.5 0.5 0.5 0.5 0.5 0.5 0.5 0.5 0.5 0.5 0.5 0.5 0.5 0.5 0.5 0.5 0.5 0.5 0.5 0.5 0.5 0.5 0.5 0.5 0.5 0.5 0.5 0.5 0.5 0.5 0.5 0.5 0.5 0.5 0.5 0.5 0.5 0.5 0.5 0.5 0.5 0.5 0.5 0.5 0.5 0.5 0.5 0.5 0.5 0.5 0.5 0.5 0.5 0.5 0.5 0.5 0.5 0.5 0.5 0.5 0.5 0.5 0.5 0.5 0.5 0.5 0.5 0.5 0.5 0.5 0.5 0.5 0.5 0.5 0.5 0.5 0.5 0.5 0.5 0.5 0.5 0.5 0.5 0.5 0.5 0.5 0.5 0.5 0.5 0.5 0.5 0.5 0.5 0.5 0.5 0.5 0.5 0.5 0.5 0.5 0.5 0.5 0.5 0.5 0.5 0.5 0.5 0.5 0.5 0.5 0.5 0.5 0.5 0.5 0.5 0.5 0.5 0.5 0.5 0.5 0.5 0.5 0.5 0.5 0.5 0.5 0.5 0.5 0.5 0.5 0.5 0.5 0.5 0.5 0.5 0.5 0.5 0.5 0.5 0.5 0.5 0.5 0.5 0.5 0.5 0.5 0.5 0.5 0.5 0.5 0.5 0.5 0.5 0.5 0.5 0.5 0.5 0.5 0.5 0.5 0.5 0.5 0.5 0.5 0.5 0.5 0.5 0.5 0.5 0.5 0.5 0.5 0.5 0.5 0.5 0.5 0.5 0.5 0.5 0.5 0.5 0.5 0.5 0.5 0.5 0.5 0.5 0.5 0.5 0.5 0.5 0.5 0.5 0.5 0.5 0.5 0.5 0.5 0.5 0.5 0.5 0.5 0.5 0.5 0.5 0.5 0.5 0.5 0.5 0.5 0.5 0.5 0.5 0.5 0.5 0.5 0.5 0.5 0.5 0.5 0.5 0.5 0.5 0.5 0.5 0.5 0.5 0.5 0.5 0.5 0.5 0.5 0.5 0.5 0.5 0.5 0.5 0.5 0.5 0.5 0.5 0.5 0.5 0.5 0.5 0.5 0.5 0.5 0.5 0.5 0.5 0.5 0.5 0.5 0.5 0.5 0.5 0.5 0.5 0.5 0.5 0.5 0.5 0.5 0.5 0.5 0.5 0.5 0.5 0.5 0.5 0.5 0.5 0.5 0.5 0.5 0.5 0.5 0.5 0.5 0.5 0.5 0.5 0.5 0.5 0.5 0.5 0.5 0.5 0.5 0.5 0.5 0.5 0.5 0.5 0.5 0.5 0.5 0.5 0.5 0.5 0.5 0.5 0.5 0.5 0.5 0.5 0.5 0.5 0.5 0.5 0.5 0.5 0.5 0.5 0.5 0.5 0.5 0.5 0.5 0.5 0.5 0.5 0.5 0.5 0.5 0.5 0.5 0.5 0.5 0.5 0.5 0.5 0.5 0.5 0.5 0.5 0.5 0.5 0.5 0.5 0.5 0.5 0.5 0.5 0.5 0.5 0.5 0.5 0.5 0.5 0.5 0.5 0.5 0.5 0.5 0.5 0.5 0.5 0.5 0.5 0.5 0.5 0.5 0.5 0.5 0.5 0.5 0.5 0.5 0.5 0.5 0.5 0.5 0.5 0.5 0.5 0.5 0.5 0.5 0.5 0.5 0.5 0.5 0.5 0.5 0.5 0.5 0.5 0.5 0.5 0.5 0.5 0.5 0.5 0.5 0.5 0.5 0.5 0.5 0.5 0.5 0.5 0.5 0.5 0.5 0.5 0.5 0.5 0.5 0.5 0.5 0.5 0.5 0.5 0.5 0.5 0.5 0.5 0.5 0.5 0.5 0.5 0.5 0.5 0.5 0.5 0.5 0.5 0.5 0.5 0.5 0.5 0.5 0.5 0.5 0.5 0.5 0.5 0.5 0.5 0.5 0.5 0.5 0.5 0.5 0.5 0.5 0.5 0.5 0.5 0.5 0.5 0.5 0.5 0.5 0.5 0.5 0.5 0.5 0.5 0.5 0.5 0.5 0.5 0.5 0.5 0.5 0.5 0.5 0.5 0.5 0.5 0.5 0.5 0.5 0.5 0.5 0.5 0.5 0.5 0.5 0.5 0.5 0.5</probabilities>
		</cpt>
		<cpt id="follow">
			<state id="NO" />
			<state id="YES" />
			<parents>interesting replied mentioned last_tweet_time following_author following_mentionedUsers info_type</parents>
			<probabilities>0.9666666666666667 0.03333333333333333 0.9666666666666667 0.03333333333333333 0.9666666666666667 0.03333333333333333 0.9666666666666667 0.03333333333333333 0.9666666666666667 0.03333333333333333 0.9666666666666667 0.03333333333333333 0.9666666666666667 0.03333333333333333 0.9666666666666667 0.03333333333333333 0.9666666666666667 0.03333333333333333 0.9666666666666667 0.03333333333333333 0.9666666666666667 0.03333333333333333 0.9666666666666667 0.03333333333333333 0.9666666666666667 0.03333333333333333 0.9666666666666667 0.03333333333333333 0.9666666666666667 0.03333333333333333 0.9666666666666667 0.03333333333333333 0.9666666666666667 0.03333333333333333 0.9666666666666667 0.03333333333333333 0.9666666666666667 0.03333333333333333 0.9666666666666667 0.03333333333333333 0.9666666666666667 0.03333333333333333 0.9666666666666667 0.03333333333333333 0.9666666666666667 0.03333333333333333 0.9666666666666667 0.03333333333333333 0.5 0.5 0.5 0.5 0.5 0.5 0.5 0.5 0.5 0.5 0.5 0.5 0.5 0.5 0.5 0.5 0.5 0.5 0.5 0.5 0.5 0.5 0.5 0.5 0.5 0.5 0.5 0.5 0.5 0.5 0.5 0.5 0.5 0.5 0.5 0.5 0.5 0.5 0.5 0.5 0.5 0.5 0.5 0.5 0.5 0.5 0.5 0.5 0.9666666666666667 0.03333333333333333 0.9666666666666667 0.03333333333333333 0.9666666666666667 0.03333333333333333 0.9666666666666667 0.03333333333333333 0.9666666666666667 0.03333333333333333 0.9666666666666667 0.03333333333333333 0.9666666666666667 0.03333333333333333 0.9666666666666667 0.03333333333333333 0.9666666666666667 0.03333333333333333 0.9666666666666667 0.03333333333333333 0.9666666666666667 0.03333333333333333 0.9666666666666667 0.03333333333333333 0.9666666666666667 0.03333333333333333 0.9666666666666667 0.03333333333333333 0.9666666666666667 0.03333333333333333 0.9666666666666667 0.03333333333333333 0.9666666666666667 0.03333333333333333 0.9666666666666667 0.03333333333333333 0.9666666666666667 0.03333333333333333 0.9666666666666667 0.03333333333333333 0.9666666666666667 0.03333333333333333 0.9666666666666667 0.03333333333333333 0.9666666666666667 0.03333333333333333 0.9666666666666667 0.03333333333333333 0.5 0.5 0.5 0.5 0.5 0.5 0.5 0.5 0.5 0.5 0.5 0.5 0.5 0.5 0.5 0.5 0.5 0.5 0.5 0.5 0.5 0.5 0.5 0.5 0.5 0.5 0.5 0.5 0.5 0.5 0.5 0.5 0.5 0.5 0.5 0.5 0.5 0.5 0.5 0.5 0.5 0.5 0.5 0.5 0.5 0.5 0.5 0.5 0.9666666666666667 0.03333333333333333 0.9666666666666667 0.03333333333333333 0.9666666666666667 0.03333333333333333 0.9666666666666667 0.03333333333333333 0.9666666666666667 0.03333333333333333 0.9666666666666667 0.03333333333333333 0.9666666666666667 0.03333333333333333 0.9666666666666667 0.03333333333333333 0.9666666666666667 0.03333333333333333 0.9666666666666667 0.03333333333333333 0.9666666666666667 0.03333333333333333 0.9666666666666667 0.03333333333333333 0.9666666666666667 0.03333333333333333 0.9666666666666667 0.03333333333333333 0.9666666666666667 0.03333333333333333 0.9666666666666667 0.03333333333333333 0.9666666666666667 0.03333333333333333 0.9666666666666667 0.03333333333333333 0.9666666666666667 0.03333333333333333 0.9666666666666667 0.03333333333333333 0.9666666666666667 0.03333333333333333 0.9666666666666667 0.03333333333333333 0.9666666666666667 0.03333333333333333 0.9666666666666667 0.03333333333333333 0.5 0.5 0.5 0.5 0.5 0.5 0.5 0.5 0.5 0.5 0.5 0.5 0.5 0.5 0.5 0.5 0.5 0.5 0.5 0.5 0.5 0.5 0.5 0.5 0.5 0.5 0.5 0.5 0.5 0.5 0.5 0.5 0.5 0.5 0.5 0.5 0.5 0.5 0.5 0.5 0.5 0.5 0.5 0.5 0.5 0.5 0.5 0.5 0.9666666666666667 0.03333333333333333 0.9666666666666667 0.03333333333333333 0.9666666666666667 0.03333333333333333 0.9666666666666667 0.03333333333333333 0.9666666666666667 0.03333333333333333 0.9666666666666667 0.03333333333333333 0.9666666666666667 0.03333333333333333 0.9666666666666667 0.03333333333333333 0.9666666666666667 0.03333333333333333 0.9666666666666667 0.03333333333333333 0.9666666666666667 0.03333333333333333 0.9666666666666667 0.03333333333333333 0.9666666666666667 0.03333333333333333 0.9666666666666667 0.03333333333333333 0.9666666666666667 0.03333333333333333 0.9666666666666667 0.03333333333333333 0.9666666666666667 0.03333333333333333 0.9666666666666667 0.03333333333333333 0.9666666666666667 0.03333333333333333 0.9666666666666667 0.03333333333333333 0.9666666666666667 0.03333333333333333 0.9666666666666667 0.03333333333333333 0.9666666666666667 0.03333333333333333 0.9666666666666667 0.03333333333333333 0.5 0.5 0.5 0.5 0.5 0.5 0.5 0.5 0.5 0.5 0.5 0.5 0.5 0.5 0.5 0.5 0.5 0.5 0.5 0.5 0.5 0.5 0.5 0.5 0.5 0.5 0.5 0.5 0.5 0.5 0.5 0.5 0.5 0.5 0.5 0.5 0.5 0.5 0.5 0.5 0.5 0.5 0.5 0.5 0.5 0.5 0.5 0.5 0.9666666666666667 0.03333333333333333 0.9666666666666667 0.03333333333333333 0.9666666666666667 0.03333333333333333 0.9666666666666667 0.03333333333333333 0.9666666666666667 0.03333333333333333 0.9666666666666667 0.03333333333333333 0.9666666666666667 0.03333333333333333 0.9666666666666667 0.03333333333333333 0.9666666666666667 0.03333333333333333 0.9666666666666667 0.03333333333333333 0.9666666666666667 0.03333333333333333 0.9666666666666667 0.03333333333333333 0.9666666666666667 0.03333333333333333 0.9666666666666667 0.03333333333333333 0.9666666666666667 0.03333333333333333 0.9666666666666667 0.03333333333333333 0.9666666666666667 0.03333333333333333 0.9666666666666667 0.03333333333333333 0.9666666666666667 0.03333333333333333 0.9666666666666667 0.03333333333333333 0.9666666666666667 0.03333333333333333 0.9666666666666667 0.03333333333333333 0.9666666666666667 0.03333333333333333 0.9666666666666667 0.03333333333333333 0.5 0.5 0.5 0.5 0.5 0.5 0.5 0.5 0.5 0.5 0.5 0.5 0.5 0.5 0.5 0.5 0.5 0.5 0.5 0.5 0.5 0.5 0.5 0.5 0.5 0.5 0.5 0.5 0.5 0.5 0.5 0.5 0.5 0.5 0.5 0.5 0.5 0.5 0.5 0.5 0.5 0.5 0.5 0.5 0.5 0.5 0.5 0.5 0.9666666666666667 0.03333333333333333 0.9666666666666667 0.03333333333333333 0.9666666666666667 0.03333333333333333 0.9666666666666667 0.03333333333333333 0.9666666666666667 0.03333333333333333 0.9666666666666667 0.03333333333333333 0.9666666666666667 0.03333333333333333 0.9666666666666667 0.03333333333333333 0.9666666666666667 0.03333333333333333 0.9666666666666667 0.03333333333333333 0.9666666666666667 0.03333333333333333 0.9666666666666667 0.03333333333333333 0.9666666666666667 0.03333333333333333 0.9666666666666667 0.03333333333333333 0.9666666666666667 0.03333333333333333 0.9666666666666667 0.03333333333333333 0.9666666666666667 0.03333333333333333 0.9666666666666667 0.03333333333333333 0.9666666666666667 0.03333333333333333 0.9666666666666667 0.03333333333333333 0.9666666666666667 0.03333333333333333 0.9666666666666667 0.03333333333333333 0.9666666666666667 0.03333333333333333 0.9666666666666667 0.03333333333333333 0.5 0.5 0.5 0.5 0.5 0.5 0.5 0.5 0.5 0.5 0.5 0.5 0.5 0.5 0.5 0.5 0.5 0.5 0.5 0.5 0.5 0.5 0.5 0.5 0.5 0.5 0.5 0.5 0.5 0.5 0.5 0.5 0.5 0.5 0.5 0.5 0.5 0.5 0.5 0.5 0.5 0.5 0.5 0.5 0.5 0.5 0.5 0.5 0.9666666666666667 0.03333333333333333 0.9666666666666667 0.03333333333333333 0.9666666666666667 0.03333333333333333 0.9666666666666667 0.03333333333333333 0.9666666666666667 0.03333333333333333 0.9666666666666667 0.03333333333333333 0.9666666666666667 0.03333333333333333 0.9666666666666667 0.03333333333333333 0.9666666666666667 0.03333333333333333 0.9666666666666667 0.03333333333333333 0.9666666666666667 0.03333333333333333 0.9666666666666667 0.03333333333333333 0.9666666666666667 0.03333333333333333 0.9666666666666667 0.03333333333333333 0.9666666666666667 0.03333333333333333 0.9666666666666667 0.03333333333333333 0.9666666666666667 0.03333333333333333 0.9666666666666667 0.03333333333333333 0.9666666666666667 0.03333333333333333 0.9666666666666667 0.03333333333333333 0.9666666666666667 0.03333333333333333 0.9666666666666667 0.03333333333333333 0.9666666666666667 0.03333333333333333 0.9666666666666667 0.03333333333333333 0.5 0.5 0.5 0.5 0.5 0.5 0.5 0.5 0.5 0.5 0.5 0.5 0.5 0.5 0.5 0.5 0.5 0.5 0.5 0.5 0.5 0.5 0.5 0.5 0.5 0.5 0.5 0.5 0.5 0.5 0.5 0.5 0.5 0.5 0.5 0.5 0.5 0.5 0.5 0.5 0.5 0.5 0.5 0.5 0.5 0.5 0.5 0.5 0.9666666666666667 0.03333333333333333 0.9666666666666667 0.03333333333333333 0.9666666666666667 0.03333333333333333 0.9666666666666667 0.03333333333333333 0.9666666666666667 0.03333333333333333 0.9666666666666667 0.03333333333333333 0.9666666666666667 0.03333333333333333 0.9666666666666667 0.03333333333333333 0.9666666666666667 0.03333333333333333 0.9666666666666667 0.03333333333333333 0.9666666666666667 0.03333333333333333 0.9666666666666667 0.03333333333333333 0.9666666666666667 0.03333333333333333 0.9666666666666667 0.03333333333333333 0.9666666666666667 0.03333333333333333 0.9666666666666667 0.03333333333333333 0.9666666666666667 0.03333333333333333 0.9666666666666667 0.03333333333333333 0.9666666666666667 0.03333333333333333 0.9666666666666667 0.03333333333333333 0.9666666666666667 0.03333333333333333 0.9666666666666667 0.03333333333333333 0.9666666666666667 0.03333333333333333 0.9666666666666667 0.03333333333333333 0.5 0.5 0.5 0.5 0.5 0.5 0.5 0.5 0.5 0.5 0.5 0.5 0.5 0.5 0.5 0.5 0.5 0.5 0.5 0.5 0.5 0.5 0.5 0.5 0.5 0.5 0.5 0.5 0.5 0.5 0.5 0.5 0.5 0.5 0.5 0.5 0.5 0.5 0.5 0.5 0.5 0.5 0.5 0.5 0.5 0.5 0.5 0.5</probabilities>
		</cpt>
		<cpt id="unfollow">
			<state id="NO" />
			<state id="YES" />
			<parents>interesting replied mentioned last_tweet_time following_author following_mentionedUsers info_type</parents>
			<probabilities>0.9772727272727273 0.02272727272727273 0.9772727272727273 0.02272727272727273 0.9772727272727273 0.02272727272727273 0.9772727272727273 0.02272727272727273 0.9772727272727273 0.02272727272727273 0.9772727272727273 0.02272727272727273 0.9772727272727273 0.02272727272727273 0.9772727272727273 0.02272727272727273 0.9772727272727273 0.02272727272727273 0.9772727272727273 0.02272727272727273 0.9772727272727273 0.02272727272727273 0.9772727272727273 0.02272727272727273 0.9772727272727273 0.02272727272727273 0.9772727272727273 0.02272727272727273 0.9772727272727273 0.02272727272727273 0.9772727272727273 0.02272727272727273 0.9772727272727273 0.02272727272727273 0.9772727272727273 0.02272727272727273 0.9772727272727273 0.02272727272727273 0.9772727272727273 0.02272727272727273 0.9772727272727273 0.02272727272727273 0.9772727272727273 0.02272727272727273 0.9772727272727273 0.02272727272727273 0.9772727272727273 0.02272727272727273 0.5 0.5 0.5 0.5 0.5 0.5 0.5 0.5 0.5 0.5 0.5 0.5 0.5 0.5 0.5 0.5 0.5 0.5 0.5 0.5 0.5 0.5 0.5 0.5 0.5 0.5 0.5 0.5 0.5 0.5 0.5 0.5 0.5 0.5 0.5 0.5 0.5 0.5 0.5 0.5 0.5 0.5 0.5 0.5 0.5 0.5 0.5 0.5 0.9772727272727273 0.02272727272727273 0.9772727272727273 0.02272727272727273 0.9772727272727273 0.02272727272727273 0.9772727272727273 0.02272727272727273 0.9772727272727273 0.02272727272727273 0.9772727272727273 0.02272727272727273 0.9772727272727273 0.02272727272727273 0.9772727272727273 0.02272727272727273 0.9772727272727273 0.02272727272727273 0.9772727272727273 0.02272727272727273 0.9772727272727273 0.02272727272727273 0.9772727272727273 0.02272727272727273 0.9772727272727273 0.02272727272727273 0.9772727272727273 0.02272727272727273 0.9772727272727273 0.02272727272727273 0.9772727272727273 0.02272727272727273 0.9772727272727273 0.02272727272727273 0.9772727272727273 0.02272727272727273 0.9772727272727273 0.02272727272727273 0.9772727272727273 0.02272727272727273 0.9772727272727273 0.02272727272727273 0.9772727272727273 0.02272727272727273 0.9772727272727273 0.02272727272727273 0.9772727272727273 0.02272727272727273 0.5 0.5 0.5 0.5 0.5 0.5 0.5 0.5 0.5 0.5 0.5 0.5 0.5 0.5 0.5 0.5 0.5 0.5 0.5 0.5 0.5 0.5 0.5 0.5 0.5 0.5 0.5 0.5 0.5 0.5 0.5 0.5 0.5 0.5 0.5 0.5 0.5 0.5 0.5 0.5 0.5 0.5 0.5 0.5 0.5 0.5 0.5 0.5 0.9772727272727273 0.02272727272727273 0.9772727272727273 0.02272727272727273 0.9772727272727273 0.02272727272727273 0.9772727272727273 0.02272727272727273 0.9772727272727273 0.02272727272727273 0.9772727272727273 0.02272727272727273 0.9772727272727273 0.02272727272727273 0.9772727272727273 0.02272727272727273 0.9772727272727273 0.02272727272727273 0.9772727272727273 0.02272727272727273 0.9772727272727273 0.02272727272727273 0.9772727272727273 0.02272727272727273 0.9772727272727273 0.02272727272727273 0.9772727272727273 0.02272727272727273 0.9772727272727273 0.02272727272727273 0.9772727272727273 0.02272727272727273 0.9772727272727273 0.02272727272727273 0.9772727272727273 0.02272727272727273 0.9772727272727273 0.02272727272727273 0.9772727272727273 0.02272727272727273 0.9772727272727273 0.02272727272727273 0.9772727272727273 0.02272727272727273 0.9772727272727273 0.02272727272727273 0.9772727272727273 0.02272727272727273 0.5 0.5 0.5 0.5 0.5 0.5 0.5 0.5 0.5 0.5 0.5 0.5 0.5 0.5 0.5 0.5 0.5 0.5 0.5 0.5 0.5 0.5 0.5 0.5 0.5 0.5 0.5 0.5 0.5 0.5 0.5 0.5 0.5 0.5 0.5 0.5 0.5 0.5 0.5 0.5 0.5 0.5 0.5 0.5 0.5 0.5 0.5 0.5 0.9772727272727273 0.02272727272727273 0.9772727272727273 0.02272727272727273 0.9772727272727273 0.02272727272727273 0.9772727272727273 0.02272727272727273 0.9772727272727273 0.02272727272727273 0.9772727272727273 0.02272727272727273 0.9772727272727273 0.02272727272727273 0.9772727272727273 0.02272727272727273 0.9772727272727273 0.02272727272727273 0.9772727272727273 0.02272727272727273 0.9772727272727273 0.02272727272727273 0.9772727272727273 0.02272727272727273 0.9772727272727273 0.02272727272727273 0.9772727272727273 0.02272727272727273 0.9772727272727273 0.02272727272727273 0.9772727272727273 0.02272727272727273 0.9772727272727273 0.02272727272727273 0.9772727272727273 0.02272727272727273 0.9772727272727273 0.02272727272727273 0.9772727272727273 0.02272727272727273 0.9772727272727273 0.02272727272727273 0.9772727272727273 0.02272727272727273 0.9772727272727273 0.02272727272727273 0.9772727272727273 0.02272727272727273 0.5 0.5 0.5 0.5 0.5 0.5 0.5 0.5 0.5 0.5 0.5 0.5 0.5 0.5 0.5 0.5 0.5 0.5 0.5 0.5 0.5 0.5 0.5 0.5 0.5 0.5 0.5 0.5 0.5 0.5 0.5 0.5 0.5 0.5 0.5 0.5 0.5 0.5 0.5 0.5 0.5 0.5 0.5 0.5 0.5 0.5 0.5 0.5 0.9772727272727273 0.02272727272727273 0.9772727272727273 0.02272727272727273 0.9772727272727273 0.02272727272727273 0.9772727272727273 0.02272727272727273 0.9772727272727273 0.02272727272727273 0.9772727272727273 0.02272727272727273 0.9772727272727273 0.02272727272727273 0.9772727272727273 0.02272727272727273 0.9772727272727273 0.02272727272727273 0.9772727272727273 0.02272727272727273 0.9772727272727273 0.02272727272727273 0.9772727272727273 0.02272727272727273 0.9772727272727273 0.02272727272727273 0.9772727272727273 0.02272727272727273 0.9772727272727273 0.02272727272727273 0.9772727272727273 0.02272727272727273 0.9772727272727273 0.02272727272727273 0.9772727272727273 0.02272727272727273 0.9772727272727273 0.02272727272727273 0.9772727272727273 0.02272727272727273 0.9772727272727273 0.02272727272727273 0.9772727272727273 0.02272727272727273 0.9772727272727273 0.02272727272727273 0.9772727272727273 0.02272727272727273 0.5 0.5 0.5 0.5 0.5 0.5 0.5 0.5 0.5 0.5 0.5 0.5 0.5 0.5 0.5 0.5 0.5 0.5 0.5 0.5 0.5 0.5 0.5 0.5 0.5 0.5 0.5 0.5 0.5 0.5 0.5 0.5 0.5 0.5 0.5 0.5 0.5 0.5 0.5 0.5 0.5 0.5 0.5 0.5 0.5 0.5 0.5 0.5 0.9772727272727273 0.02272727272727273 0.9772727272727273 0.02272727272727273 0.9772727272727273 0.02272727272727273 0.9772727272727273 0.02272727272727273 0.9772727272727273 0.02272727272727273 0.9772727272727273 0.02272727272727273 0.9772727272727273 0.02272727272727273 0.9772727272727273 0.02272727272727273 0.9772727272727273 0.02272727272727273 0.9772727272727273 0.02272727272727273 0.9772727272727273 0.02272727272727273 0.9772727272727273 0.02272727272727273 0.9772727272727273 0.02272727272727273 0.9772727272727273 0.02272727272727273 0.9772727272727273 0.02272727272727273 0.9772727272727273 0.02272727272727273 0.9772727272727273 0.02272727272727273 0.9772727272727273 0.02272727272727273 0.9772727272727273 0.02272727272727273 0.9772727272727273 0.02272727272727273 0.9772727272727273 0.02272727272727273 0.9772727272727273 0.02272727272727273 0.9772727272727273 0.02272727272727273 0.9772727272727273 0.02272727272727273 0.5 0.5 0.5 0.5 0.5 0.5 0.5 0.5 0.5 0.5 0.5 0.5 0.5 0.5 0.5 0.5 0.5 0.5 0.5 0.5 0.5 0.5 0.5 0.5 0.5 0.5 0.5 0.5 0.5 0.5 0.5 0.5 0.5 0.5 0.5 0.5 0.5 0.5 0.5 0.5 0.5 0.5 0.5 0.5 0.5 0.5 0.5 0.5 0.9772727272727273 0.02272727272727273 0.9772727272727273 0.02272727272727273 0.9772727272727273 0.02272727272727273 0.9772727272727273 0.02272727272727273 0.9772727272727273 0.02272727272727273 0.9772727272727273 0.02272727272727273 0.9772727272727273 0.02272727272727273 0.9772727272727273 0.02272727272727273 0.9772727272727273 0.02272727272727273 0.9772727272727273 0.02272727272727273 0.9772727272727273 0.02272727272727273 0.9772727272727273 0.02272727272727273 0.9772727272727273 0.02272727272727273 0.9772727272727273 0.02272727272727273 0.9772727272727273 0.02272727272727273 0.9772727272727273 0.02272727272727273 0.9772727272727273 0.02272727272727273 0.9772727272727273 0.02272727272727273 0.9772727272727273 0.02272727272727273 0.9772727272727273 0.02272727272727273 0.9772727272727273 0.02272727272727273 0.9772727272727273 0.02272727272727273 0.9772727272727273 0.02272727272727273 0.9772727272727273 0.02272727272727273 0.5 0.5 0.5 0.5 0.5 0.5 0.5 0.5 0.5 0.5 0.5 0.5 0.5 0.5 0.5 0.5 0.5 0.5 0.5 0.5 0.5 0.5 0.5 0.5 0.5 0.5 0.5 0.5 0.5 0.5 0.5 0.5 0.5 0.5 0.5 0.5 0.5 0.5 0.5 0.5 0.5 0.5 0.5 0.5 0.5 0.5 0.5 0.5 0.9772727272727273 0.02272727272727273 0.9772727272727273 0.02272727272727273 0.9772727272727273 0.02272727272727273 0.9772727272727273 0.02272727272727273 0.9772727272727273 0.02272727272727273 0.9772727272727273 0.02272727272727273 0.9772727272727273 0.02272727272727273 0.9772727272727273 0.02272727272727273 0.9772727272727273 0.02272727272727273 0.9772727272727273 0.02272727272727273 0.9772727272727273 0.02272727272727273 0.9772727272727273 0.02272727272727273 0.9772727272727273 0.02272727272727273 0.9772727272727273 0.02272727272727273 0.9772727272727273 0.02272727272727273 0.9772727272727273 0.02272727272727273 0.9772727272727273 0.02272727272727273 0.9772727272727273 0.02272727272727273 0.9772727272727273 0.02272727272727273 0.9772727272727273 0.02272727272727273 0.9772727272727273 0.02272727272727273 0.9772727272727273 0.02272727272727273 0.9772727272727273 0.02272727272727273 0.9772727272727273 0.02272727272727273 0.5 0.5 0.5 0.5 0.5 0.5 0.5 0.5 0.5 0.5 0.5 0.5 0.5 0.5 0.5 0.5 0.5 0.5 0.5 0.5 0.5 0.5 0.5 0.5 0.5 0.5 0.5 0.5 0.5 0.5 0.5 0.5 0.5 0.5 0.5 0.5 0.5 0.5 0.5 0.5 0.5 0.5 0.5 0.5 0.5 0.5 0.5 0.5</probabilities>
		</cpt>
	</nodes>
	<extensions>
		<genie version="1.0" app="GeNIe 2.0.4334.1" name="Modelo___BayesModel" faultnameformat="nodestate">
			<node id="publish_tweet">
				<name>publish_tweet</name>
				<interior color="ffff80" />
				<outline color="000080" />
				<font color="000000" name="Arial" size="8" />
				<position>148 444 220 492</position>
				<barchart active="true" width="128" height="64" />
			</node>
			<node id="retweet">
				<name>retweet</name>
				<interior color="ffff80" />
				<outline color="000080" />
				<font color="000000" name="Arial" size="8" />
				<position>313 447 385 495</position>
				<barchart active="true" width="128" height="64" />
			</node>
			<node id="favorite">
				<name>favorite</name>
				<interior color="ffff80" />
				<outline color="000080" />
				<font color="000000" name="Arial" size="8" />
				<position>810 444 882 492</position>
				<barchart active="true" width="128" height="64" />
			</node>
			<node id="publish_reply">
				<name>publish_reply</name>
				<interior color="ffff80" />
				<outline color="000080" />
				<font color="000000" name="Arial" size="8" />
				<position>983 443 1055 491</position>
				<barchart active="true" width="128" height="64" />
			</node>
			<node id="send_DM">
				<name>send_DM</name>
				<interior color="ffff80" />
				<outline color="000080" />
				<font color="000000" name="Arial" size="8" />
				<position>1141 446 1213 494</position>
				<barchart active="true" width="128" height="64" />
			</node>
			<node id="delete_tweet">
				<name>delete_tweet</name>
				<interior color="ffff80" />
				<outline color="000080" />
				<font color="000000" name="Arial" size="8" />
				<position>1304 446 1376 494</position>
				<barchart active="true" width="128" height="64" />
			</node>
			<node id="follow">
				<name>follow</name>
				<interior color="ffff80" />
				<outline color="000080" />
				<font color="000000" name="Arial" size="8" />
				<position>488 444 560 492</position>
				<barchart active="true" width="128" height="64" />
			</node>
			<node id="unfollow">
				<name>unfollow</name>
				<interior color="ffff80" />
				<outline color="000080" />
				<font color="000000" name="Arial" size="8" />
				<position>649 445 721 493</position>
				<barchart active="true" width="128" height="64" />
			</node>
			<node id="interesting">
				<name>interesting</name>
				<interior color="ffffff" />
				<outline color="000080" />
				<font color="000000" name="Arial" size="8" />
				<position>188 237 260 285</position>
				<barchart active="true" width="128" height="64" />
			</node>
			<node id="last_tweet_time">
				<name>last_tweet_time</name>
				<interior color="ccffcc" />
				<outline color="000080" />
				<font color="000000" name="Arial" size="8" />
				<position>692 240 764 288</position>
				<barchart active="true" width="128" height="90" />
			</node>
			<node id="mentioned">
				<name>mentioned</name>
				<interior color="ccffcc" />
				<outline color="000080" />
				<font color="000000" name="Arial" size="8" />
				<position>529 229 601 277</position>
				<barchart active="true" width="128" height="64" />
			</node>
			<node id="replied">
				<name>replied</name>
				<interior color="ccffcc" />
				<outline color="000080" />
				<font color="000000" name="Arial" size="8" />
				<position>355 234 427 282</position>
				<barchart active="true" width="128" height="64" />
			</node>
			<node id="topic_FOOTBALL">
				<name>topic_FOOTBALL</name>
				<interior color="ccffff" />
				<outline color="000080" />
				<font color="000000" name="Arial" size="8" />
				<position>60 69 132 117</position>
				<barchart active="true" width="128" height="64" />
			</node>
			<node id="topic_SPORT">
				<name>topic_SPORT</name>
				<interior color="ccffff" />
				<outline color="000080" />
				<font color="000000" name="Arial" size="8" />
				<position>231 66 303 114</position>
				<barchart active="true" width="128" height="64" />
			</node>
			<node id="topic_BASKET">
				<name>topic_BASKET</name>
				<interior color="ccffff" />
				<outline color="000080" />
				<font color="000000" name="Arial" size="8" />
				<position>404 64 476 112</position>
				<barchart active="true" width="128" height="64" />
			</node>
			<node id="info_type">
				<name>info_type</name>
				<interior color="ccffcc" />
				<outline color="000080" />
				<font color="000000" name="Arial" size="8" />
				<position>568 131 627 167</position>
				<barchart active="true" width="128" height="64" />
			</node>
			<node id="following_author">
				<name>following_author</name>
				<interior color="ccffcc" />
				<outline color="000080" />
				<font color="000000" name="Arial" size="8" />
				<position>859 227 950 283</position>
				<barchart active="true" width="128" height="64" />
			</node>
			<node id="following_mentionedUsers">
				<name>following_mentionedUsers</name>
				<interior color="ccffcc" />
				<outline color="000080" />
				<font color="000000" name="Arial" size="8" />
				<position>1029 216 1166 301</position>
				<barchart active="true" width="181" height="72" />
			</node>
			<node id="own_tweet">
				<name>own_tweet</name>
				<interior color="ccffcc" />
				<outline color="000080" />
				<font color="000000" name="Arial" size="8" />
				<position>1305 284 1374 327</position>
				<barchart active="true" width="128" height="64" />
			</node>
		</genie>
	</extensions>
</smile>
